Language model created by QuickLM on Wed Jun 26 12:53:58 EDT 2024
Copyright (c) 1996-2010 Carnegie Mellon University and Alexander I. Rudnicky

The model is in standard ARPA format, designed by Doug Paul while he was at MITRE.

The code that was used to produce this language model is available in Open Source.
Please visit http://www.speech.cs.cmu.edu/tools/ for more information

The (fixed) discount mass is 0.5. The backoffs are computed using the ratio method.
This model based on a corpus of 2330 sentences and 6215 words

\data\
ngram 1=6215
ngram 2=16099
ngram 3=19414

\1-grams:
-4.7624 #AZIRA -0.3010
-4.7624 #EFHUN -0.2938
-4.7624 #EJMSA -0.3010
-4.4613 #EKSON -0.2832
-4.7624 #IHAD -0.2832
-4.7624 #OKEJI -0.2832
-4.4613 #ON -0.3010
-4.4613 #ONA -0.3010
-4.1603 #OR# -0.3010
-4.2852 #OR#A -0.3010
-1.3950 </s> -0.3010
-4.4613 <a> -0.2982
-4.7624 <esbritans> -0.3010
-3.9842 <greska> -0.2999
-4.7624 <infark> -0.3010
-4.7624 <k> -0.3009
-4.1603 <kao> -0.2947
-4.7624 <malija> -0.3010
-4.7624 <nep> -0.3009
-4.7624 <od> -0.3010
-4.7624 <odre}ene> -0.3010
-4.7624 <osobam> -0.3009
-2.6353 <papir> -0.2343
-4.7624 <pip> -0.3010
-4.7624 <pitanj> -0.2986
-4.7624 <prijatilje> -0.3010
-4.7624 <razmi> -0.3010
-1.3950 <s> -0.2075
-2.2572 <sil> -0.2212
-4.7624 <sjeveroza> -0.3010
-4.7624 <t> -0.3010
-4.7624 <tra> -0.3010
-3.4401 <udarac> -0.2535
-4.7624 <upotrijebiti> -0.3010
-1.7833 <uzdah> -0.2124
-4.7624 <vrb> -0.3010
-4.7624 <zakinuti> -0.2994
-4.7624 <{ir> -0.2967
-4.1603 <{kripanje> -0.2944
-4.2852 <{um> -0.3003
-4.7624 <~evterogodi{nje> -0.2938
-2.4121 A -0.2699
-4.0634 ABAS -0.2962
-4.2852 ABASA -0.2832
-4.7624 ADEESEL -0.3010
-4.7624 ADENOKARCENOMU -0.3010
-4.7624 ADIO -0.2957
-4.7624 ADMINISTRACIJA -0.3010
-4.7624 ADRESE -0.2947
-4.4613 ADRIJA -0.2986
-4.7624 AEMVEBE -0.2832
-4.7624 AEMVEBEA -0.2832
-4.7624 AFERA -0.3010
-4.7624 AFGANISTANA -0.3010
-4.7624 AFGANISTANU -0.2832
-4.4613 AFRICI -0.2956
-4.7624 AFRIKA -0.3010
-4.7624 AFRIKE -0.2938
-4.7624 AFRI~KIH -0.3009
-4.4613 AGENCIJA -0.3010
-4.7624 AGENCIJAMA -0.2957
-4.2852 AGENCIJE -0.2956
-4.4613 AGRESIJE -0.2967
-4.7624 AGRESIJU -0.2967
-4.7624 AGRESOR -0.2993
-4.7624 AHARNOT -0.2832
-4.7624 AHMEDA -0.3010
-4.7624 AITA -0.2832
-4.7624 AJAN -0.3010
-4.7624 AJKENU -0.2832
-4.7624 AKADEMIJI -0.3010
-4.7624 AKADEMIKA -0.3010
-4.4613 AKCIJA -0.2939
-4.2852 AKCIJE -0.2957
-4.2852 AKCIJI -0.2953
-4.4613 AKCIJU -0.3009
-3.8081 AKO -0.2867
-4.7624 AKTIVIRALA -0.2985
-4.7624 AKTIVNIH -0.3010
-4.7624 AKTIVNO -0.3010
-4.7624 AKTUALNA -0.3009
-4.4613 AKTUALNO -0.2957
-4.4613 AL -0.3010
-4.7624 ALBANACA -0.3005
-4.7624 ALBANSKI -0.3007
-4.7624 ALEN -0.3010
-4.7624 ALFRED -0.3010
-3.3474 ALI -0.2577
-4.7624 ALIJA -0.3010
-4.4613 ALKAIDE -0.2832
-4.4613 ALKOHOLA -0.2944
-4.7624 ALTERNATIVE -0.3008
-4.7624 AL`IRAC -0.2947
-4.7624 AMBULANTI -0.2832
-4.7624 AMERIKA -0.2963
-4.4613 AMERIKANACA -0.3004
-4.7624 AMERIKANCA -0.3010
-4.7624 AMERIKANCIMA -0.2938
-4.4613 AMERIKE -0.2824
-4.0634 AMERI~KA -0.3009
-4.1603 AMERI~KE -0.3010
-3.9173 AMERI~KI -0.2959
-4.4613 AMERI~KIH -0.3009
-4.7624 AMERI~KIM -0.3010
-4.1603 AMERI~KOG -0.3008
-4.4613 AMERI~KOGA -0.3009
-4.7624 AMERI~KOJ -0.3010
-4.4613 AN#ELESU -0.2913
-4.7624 ANA -0.3010
-4.7624 ANADOLIJA -0.2832
-4.4613 ANALITI~ARA -0.3010
-4.7624 ANALIZA -0.3010
-4.4613 ANDAMANIMA -0.2832
-4.7624 ANDAMANU -0.2957
-4.2852 ANDRIJA -0.3010
-4.7624 ANGA`IRALE -0.3010
-4.4613 ANIBAL -0.3010
-4.7624 ANKICI -0.3010
-4.7624 ANS -0.2832
-4.7624 ANSAMBLA -0.2986
-4.7624 ANSARALISLAM -0.2938
-4.7624 ANTE -0.3010
-4.1603 ANTICIKLONA -0.2828
-4.0634 ANTICIKLONALNI -0.3010
-4.4613 ANTICIKLONALNO -0.3009
-4.7624 ANTOFAGASTOM -0.2947
-4.7624 ANTUN -0.3010
-4.7624 ARABIJI -0.2832
-4.7624 ARAFAT -0.2832
-4.4613 ARAFATA -0.2832
-4.4613 ARAFATOM -0.2832
-4.7624 ARAPSKO -0.3010
-4.7624 ARAPSKOGA -0.3010
-4.7624 ARBITRIRATI -0.2957
-4.7624 ARENASOM -0.2832
-4.7624 ARENASU -0.2832
-4.4613 ARGENTINSKA -0.3009
-4.2852 ARHIPELAGU -0.2807
-4.7624 ARIEL -0.3010
-4.7624 ARIELA -0.3010
-4.7624 ARIJEL -0.3010
-4.7624 ARMIJA -0.3010
-4.7624 AROGANTNIMA -0.2947
-4.7624 ART -0.3010
-4.7624 ASMATI~ARI -0.3009
-4.7624 ASPIRACIJE -0.3010
-4.4613 ASTMATI~ARE -0.2832
-4.7624 ASTMATI~ARI -0.3010
-4.7624 ASTMATI~ARIMA -0.2947
-4.7624 ASTRONAUTI -0.3010
-4.7624 ASTRONAUTIMA -0.3010
-4.7624 ATMOSFERSKOG -0.3010
-4.7624 AUDIJENCIJE -0.3007
-4.7624 AUDIOSPOTOVI -0.3004
-4.7624 AUGUSTA -0.3010
-4.4613 AUSTRALCI -0.2994
-4.7624 AUSTRALIJE -0.2832
-4.4613 AUSTRIJSKI -0.3007
-4.7624 AUSTRIJSKOGA -0.3010
-4.7624 AUTENTI~NIM -0.3010
-4.4613 AUTO -0.3010
-4.7624 AUTOBUS -0.2832
-4.7624 AUTOBUSI -0.2947
-4.7624 AUTOCESTA -0.2989
-4.4613 AUTOCESTAMA -0.3010
-4.2852 AUTOCESTE -0.2883
-4.4613 AUTOCESTI -0.3009
-4.4613 AUTOCESTOM -0.2992
-4.7624 AUTOCESTU -0.2967
-4.7624 AUTOKLUB -0.3008
-4.7624 AUTOKLUBOVIMA -0.2947
-4.7624 AUTOMEHANI~AR -0.2832
-3.8081 AUTOMOBILA -0.2766
-4.7624 AUTOMOBILI -0.3010
-4.2852 AUTOMOBILIMA -0.2947
-4.4613 AUTOMOBILISTI~KE -0.3010
-4.7624 AUTOMOBILOM -0.3007
-4.7624 AUTOMOBILU -0.3010
-4.7624 AUTORA -0.3010
-4.7624 AUTORI -0.2997
-4.7624 AUTORICA -0.3010
-4.7624 AUTORITARNOME -0.3010
-4.7624 AVANGARD -0.2832
-4.7624 AVENIJE -0.3009
-4.4613 AVIJATI~AR -0.2814
-4.4613 AVIJATI~ARU -0.2832
-4.1603 AZIJE -0.2756
-3.5582 AZIJI -0.2762
-4.7624 AZIJOM -0.2832
-4.7624 AZIJSKIH -0.3009
-4.2852 AZIJU -0.3010
-4.7624 A~EHU -0.2938
-4.7624 BABINU -0.3010
-4.7624 BABI^ -0.2832
-4.7624 BADAGSAN -0.2832
-4.7624 BADAGSANU -0.2994
-4.2852 BAGDADA -0.2757
-4.4613 BAJ#IJU -0.2832
-4.7624 BAJRAM -0.2957
-4.7624 BAJRAMA -0.2832
-4.4613 BAKI -0.3010
-4.7624 BALKANSKIM -0.3010
-4.7624 BALTAZAR -0.3010
-4.7624 BANJALU~KI -0.3010
-4.2852 BANKA -0.3003
-4.4613 BANKE -0.3007
-4.2852 BANKOKU -0.2756
-4.7624 BARANJSKE -0.3010
-4.7624 BARBARSTVOM -0.2832
-4.7624 BARI^ -0.2938
-4.7624 BAROVE -0.2938
-4.4613 BATISTE -0.2832
-4.7624 BAZE -0.2832
-4.7624 BAZU -0.3010
-4.2852 BA{ -0.3009
-4.7624 BEBI^ -0.2832
-4.4613 BEIHA -0.3010
-4.1603 BEJBI -0.2814
-4.7624 BELFASTA -0.2957
-4.7624 BELFASTU -0.2967
-4.4613 BEN -0.2832
-4.7624 BENATSA -0.2938
-4.4613 BENVENTU -0.2832
-4.7624 BENZINA -0.2832
-4.7624 BEOGRADA -0.3010
-4.4613 BEOGRADSKI -0.3010
-4.1603 BEOGRADU -0.2739
-4.7624 BERISLAV -0.3010
-4.7624 BERISLAVA -0.3010
-4.7624 BERLINU -0.2832
-4.7624 BERLUSKONI -0.2832
-4.7624 BESPLATNA -0.2832
-4.7624 BETLEHEMU -0.3009
-4.2852 BETONA -0.2935
-4.7624 BETONSKI -0.3010
-3.4006 BEZ -0.2982
-4.7624 BE~A -0.2957
-4.7624 BE~KI -0.3010
-4.7624 BE~U -0.3010
-2.9299 BI -0.2683
-4.7624 BIBISIJA -0.3010
-4.4613 BIG -0.3010
-4.7624 BIH -0.2987
-4.4613 BIJENALU -0.2938
-3.6832 BILA -0.2882
-4.1603 BILE -0.2830
-4.1603 BILI -0.2887
-4.7624 BILJARA -0.3010
-3.6484 BILO -0.2686
-4.7624 BILOGORSKA -0.3010
-4.7624 BILTENU -0.3010
-3.4401 BIO -0.2532
-4.7624 BIOKOVU -0.2832
-3.5582 BIOMETEOROLO{KA -0.3003
-4.7624 BIOMETEOROLO{KE -0.2997
-3.7210 BIOMETEOROLO{KI -0.2924
-4.7624 BIOMETEOROLO{KIH -0.3010
-4.7624 BIRA -0.3010
-4.7624 BIRATI -0.3010
-4.2852 BIRA~A -0.2913
-4.4613 BIRA~I -0.2943
-4.7624 BIRA~KA -0.3010
-4.7624 BIRA~KIH -0.3010
-4.7624 BIRA~KIM -0.3010
-4.4613 BISKUP -0.3010
-4.7624 BISKUPSKE -0.3010
-4.7624 BISTRINE -0.2947
-3.7624 BIT -0.2997
-3.1942 BITI -0.2754
-4.7624 BITKU -0.2832
-4.4613 BIV{A -0.3009
-4.7624 BIV{E -0.2947
-4.0634 BIV{EG -0.3009
-4.2852 BIV{I -0.3010
-4.7624 BIV{IH -0.3010
-4.7624 BIV{IM -0.3010
-4.7624 BJELOVARSKO -0.3010
-4.7624 BJELOVARSKOG -0.3010
-4.7624 BJELOVARU -0.2832
-4.7624 BLAGAJU -0.3010
-4.0634 BLAGDAN -0.2962
-4.7624 BLAGDANA -0.3010
-4.7624 BLAGDANE -0.3001
-4.7624 BLAGDANI -0.2957
-4.7624 BLAGDANSKOG -0.3010
-4.7624 BLA{KI^ -0.3010
-4.7624 BLA{KI^A -0.3010
-4.7624 BLA{KI^EVA -0.3010
-4.7624 BLA{KI^EVU -0.3010
-4.2852 BLER -0.2821
-4.4613 BLERA -0.2992
-4.7624 BLEROVOJ -0.3010
-4.4613 BLISKE -0.3010
-4.7624 BLISKOG -0.3010
-4.7624 BLISKOISTO~NE -0.3010
-4.4613 BLIZINI -0.3010
-4.1603 BLIZU -0.3010
-4.7624 BLJESAK -0.2947
-4.4613 BLOKA -0.2830
-4.7624 BLOKADU -0.3006
-4.4613 BODEVINSKOM -0.2938
-4.7624 BOGATA -0.3010
-4.7624 BOINGA -0.3006
-4.7624 BOJKOTIRAJU -0.3010
-4.7624 BOJNE -0.2832
-4.7624 BOKELJSKA -0.3010
-4.7624 BOLCANU -0.2986
-3.7210 BOLESNICI -0.2759
-4.7624 BOLESNICIMA -0.3001
-4.2852 BOLESNIKA -0.2825
-4.4613 BOLESNIKE -0.2947
-4.1603 BOLEST -0.2830
-4.7624 BOLESTAN -0.2947
-4.0634 BOLESTI -0.2782
-4.4613 BOLESTIMA -0.2947
-4.7624 BOLJE -0.3010
-4.7624 BOLNICA -0.3009
-4.7624 BOLNICAMA -0.3006
-4.4613 BOLNICI -0.2818
-4.4613 BOLNICU -0.2832
-4.7624 BOLNI~KO -0.3010
-4.4613 BOLONJI -0.3010
-4.7624 BOLONT -0.2938
-4.7624 BOLOVA -0.2967
-4.7624 BOLOVE -0.2832
-4.7624 BOLSANU -0.3010
-4.7624 BOL}ANA -0.2832
-4.7624 BOL}ANU -0.3010
-4.4613 BOMBA -0.2782
-4.4613 BOMBAMA -0.2832
-4.7624 BOMBARDIRAN -0.3008
-4.7624 BOMBA{A -0.3010
-4.7624 BOMBI -0.2957
-4.7624 BONA~I -0.3005
-4.4613 BONUS -0.2998
-4.7624 BORAVE -0.2957
-4.7624 BORAVI -0.2957
-4.7624 BORAVKA -0.3010
-4.7624 BORBAMA -0.2963
-4.7624 BORBE -0.3009
-4.2852 BORBI -0.2956
-4.7624 BORBU -0.3000
-4.7624 BORE -0.2985
-4.4613 BORIS -0.3010
-4.2852 BORISA -0.3010
-4.7624 BOROVE -0.3010
-4.7624 BOSILJEVA -0.3006
-4.2852 BOSNE -0.2766
-4.0634 BOSNI -0.2766
-3.7624 BOTOVO -0.2774
-4.0634 BO`I^ -0.2939
-4.7624 BO`I^NE -0.3010
-4.2852 BO`I^NI -0.3010
-4.7624 BO`I^NO -0.3010
-4.4613 BO`I^NOM -0.3010
-4.7624 BO`JA -0.3010
-4.7624 BO`JU -0.3010
-4.7624 BO{NJAKA -0.2832
-4.7624 BO{NJA~KOHRVATSKOGA -0.3010
-4.7624 BRAJANA -0.3010
-4.7624 BRAKU -0.3001
-4.7624 BRANDEBUR{KA -0.3010
-4.7624 BRANILA -0.2832
-3.9842 BRANITELJA -0.2766
-4.4613 BRANKA -0.3010
-4.7624 BRA^E -0.3010
-4.7624 BRA^OM -0.3010
-4.7624 BRA~A -0.3004
-4.7624 BRA~NI -0.3010
-4.7624 BRA~NOG -0.3010
-4.4613 BRA~U -0.2766
-4.4613 BRDU -0.3009
-4.7624 BRE{KOVI^ -0.2832
-4.7624 BRIGADNI -0.3010
-4.7624 BRIGU -0.2938
-4.7624 BRINJSKA -0.3010
-4.7624 BRINJU -0.3010
-4.4613 BRISELA -0.2832
-4.7624 BRISELOM -0.2938
-4.1603 BRISELU -0.2831
-4.2852 BRITANIJA -0.3008
-4.4613 BRITANIJE -0.2766
-4.7624 BRITANSKA -0.3009
-4.4613 BRITANSKE -0.3010
-3.9173 BRITANSKI -0.3008
-4.4613 BRITANSKIH -0.3010
-4.7624 BRITANSKIM -0.3010
-4.2852 BRITANSKOGA -0.3009
-4.7624 BRITANSKOM -0.3010
-3.6832 BROD -0.2734
-4.2852 BRODOGRADILI{TA -0.2831
-3.9173 BROJ -0.3007
-4.7624 BROJEVIMA -0.2967
-4.7624 BROJKA -0.2963
-4.4613 BROJU -0.3010
-4.7624 BRON~ANE -0.3010
-4.7624 BRO{URA -0.3003
-4.7624 BRUS -0.3010
-4.7624 BRZINE -0.3004
-4.7624 BRZO -0.2997
-4.7624 BRZOJ -0.3010
-4.7624 BRZOJAV -0.3010
-4.7624 BRZOJAVU -0.2832
-4.1603 BR`E -0.3010
-4.1603 BUDE -0.3010
-3.9842 BUDIMPE{TA -0.2984
-3.9842 BUDU^I -0.2994
-4.7624 BUDU^IM -0.3000
-4.4613 BUDU^NOST -0.2938
-4.7624 BUDU^NOSTI -0.3010
-4.7624 BUDU^U -0.3010
-4.7624 BUKI -0.2938
-4.7624 BUKNUO -0.3010
-4.4613 BULI~I^ -0.2782
-4.7624 BULI~I^EM -0.2832
-4.7624 BUR#ELEZ -0.2938
-3.1391 BURA -0.2548
-4.4613 BURE -0.2936
-3.6484 BURIN -0.2721
-4.7624 BUROM -0.2832
-4.2852 BURU -0.2776
-3.8593 BU{ -0.2775
-4.2852 BU{A -0.2831
-4.7624 BU~NIMA -0.3010
-4.7624 CAVTATU -0.2832
-4.4613 CENTAR -0.2932
-3.3152 CENTRA -0.2793
-4.2852 CESTA -0.2995
-4.7624 CESTARINA -0.2963
-4.7624 CESTARINE -0.2967
-4.4613 CESTE -0.2946
-3.9842 CESTI -0.2752
-4.7624 CESTOVNE -0.3000
-4.7624 CESTOVNOG -0.3010
-4.7624 CESTOVNOM -0.3010
-4.7624 CIGARETE -0.2832
-4.4613 CIJELA -0.3006
-4.7624 CIJELE -0.3008
-3.9173 CIJELIH -0.2968
-4.2852 CIJELOGA -0.3010
-4.1603 CIJELOJ -0.2996
-4.7624 CIJELOM -0.3010
-4.4613 CIJELU -0.3010
-4.4613 CIJENA -0.3010
-4.4613 CIJENE -0.3010
-4.7624 CIJENI -0.3010
-4.7624 CIJENU -0.3008
-3.9842 CIKLONA -0.2995
-4.7624 CIKLONALNO -0.3009
-4.2852 CIKLONE -0.2993
-4.7624 CILJEM -0.3010
-4.7624 CILJEVE -0.2832
-4.7624 CILJU -0.3010
-4.7624 CIPAR -0.2938
-4.7624 CIVILA -0.2947
-4.7624 CIVILNE -0.3010
-4.7624 CIVILNIH -0.3010
-4.7624 CJELOSTI -0.3010
-4.7624 CJELOVITE -0.3010
-4.7624 CJELOVITOST -0.3010
-4.7624 COTA -0.2832
-4.4613 CRKAVA -0.2766
-4.4613 CRNA -0.3010
-3.8081 CRNAC -0.2774
-4.2852 CRNE -0.3010
-4.7624 CRNIM -0.3010
-4.2852 CRNI^ -0.3006
-4.7624 CRNOBORI -0.3010
-4.7624 CRNOGA -0.3010
-4.7624 CRNOJ -0.3010
-4.7624 CRNU -0.3010
-4.7624 CRTICA -0.3010
-4.4613 CRVENI -0.3010
-4.7624 CRVENOG -0.3010
-4.7624 CRVENOGA -0.3010
-4.2852 CUNAMI -0.2832
-3.7624 CUNAMIJA -0.2648
-4.7624 CUNAMIJEM -0.2957
-4.2852 CUNAMIJI -0.2807
-4.7624 CUNAMIJIMA -0.2832
-4.1603 CUNAMIJU -0.2700
-4.7624 CVJETANOVI^ -0.2938
-2.4219 DA -0.2515
-4.2852 DAJU -0.3009
-4.7624 DALA -0.2963
-4.2852 DALI -0.2994
-3.4836 DALJE -0.2653
-4.7624 DALJNJE -0.3010
-4.4613 DALJNJEGA -0.2830
-4.2852 DALMACIJE -0.2756
-3.6484 DALMACIJI -0.2736
-4.7624 DALMATINSKE -0.3010
-4.7624 DALMATINSKOJ -0.2947
-4.7624 DALO -0.3009
-4.4613 DAMIR -0.3010
-4.7624 DAMIRA -0.3010
-4.7624 DAMIROM -0.3010
-3.6484 DAN -0.2709
-3.1189 DANA -0.2568
-3.2710 DANAS -0.2596
-4.7624 DANA{NJE -0.3010
-4.4613 DANA{NJEG -0.2947
-3.8593 DANA{NJI -0.3007
-4.4613 DANA{NJOJ -0.3010
-4.7624 DANE -0.2832
-3.7210 DANJU -0.2963
-4.7624 DANO -0.3010
-4.4613 DANOM -0.3010
-4.4613 DAO -0.3010
-4.7624 DARFURSKIH -0.3010
-4.7624 DARFURU -0.3008
-4.7624 DARIJA -0.3010
-4.7624 DARIVANJE -0.2832
-4.7624 DAROVALI -0.3010
-4.7624 DAROVE -0.2938
-4.4613 DATI -0.3010
-4.1603 DATUM -0.2831
-4.7624 DATUMA -0.3010
-4.4613 DAVOR -0.3010
-4.4613 DA~I -0.2830
-4.2852 DECEA -0.2821
-4.7624 DECEU -0.3010
-4.7624 DEESA -0.2832
-4.7624 DEESE -0.2832
-4.2852 DEESESA -0.2832
-4.7624 DEESU -0.2832
-4.7624 DEFICITA -0.2832
-4.7624 DEJANOVI^ -0.2938
-4.7624 DEL -0.3010
-4.7624 DELA -0.3010
-4.7624 DELASERA -0.3010
-4.7624 DELNICA -0.2989
-4.7624 DELNICE -0.3010
-4.4613 DELO -0.2831
-4.7624 DEMOKRACIJE -0.2832
-4.2852 DEMOKRACIJU -0.2947
-4.7624 DEMOKRATIZACIJE -0.3010
-4.7624 DEMOKRATSKA -0.3010
-4.2852 DEMOKRATSKE -0.3009
-4.4613 DEMOKRATSKOG -0.3008
-4.4613 DEMOKRATSKOGA -0.3010
-4.4613 DENIS -0.3010
-4.7624 DEPOZITI -0.3010
-4.4613 DEPRESIJSKO -0.3009
-4.4613 DER -0.3010
-2.9915 DESET -0.2545
-4.7624 DESETA -0.3010
-4.4613 DESETAK -0.3007
-4.7624 DESETERO -0.3007
-4.7624 DESETOGA -0.3009
-4.7624 DESETOJ -0.3010
-4.7624 DETALJNIM -0.3010
-3.3644 DEVEDESET -0.2703
-4.7624 DEVEDESETIH -0.2832
-3.0300 DEVET -0.2541
-4.7624 DEVETE -0.3001
-4.4613 DEVETERO -0.2832
-4.0634 DEVETNAEST -0.2942
-4.7624 DEVETNAESTI -0.3010
-4.4613 DEVETNAESTOGA -0.2989
-4.4613 DEVETOGA -0.3009
-4.7624 DEVETORICA -0.3010
-4.7624 DEVETORICE -0.3010
-3.8081 DEVETSTO -0.3006
-4.7624 DEVIZNI -0.3010
-4.4613 DI -0.3010
-4.7624 DIJAGNOSTI~KI -0.3010
-4.7624 DIJAGNOZU -0.3010
-4.7624 DIJALOG -0.2947
-4.7624 DIJALOGU -0.3004
-4.4613 DIJASPORU -0.2757
-4.2852 DIJELA -0.3002
-4.7624 DIJELOM -0.3010
-4.7624 DIJELOVIMA -0.3010
-3.1092 DIJELU -0.2807
-4.7624 DIKTATORA -0.2832
-4.2852 DILJEM -0.3008
-4.7624 DIMA -0.3004
-4.7624 DIMITRIJE -0.3010
-4.4613 DIMOM -0.2757
-4.7624 DIN -0.3010
-3.5319 DIO -0.2777
-4.7624 DIOKLECIJANOVU -0.3010
-4.4613 DIOKSINOM -0.2757
-4.4613 DIONI~ARA -0.2814
-4.7624 DIONI~ARI -0.3010
-4.4613 DIPARTMENT -0.2782
-4.4613 DIPLOMACIJE -0.2938
-4.7624 DIPLOMAT -0.3010
-4.7624 DIPLOMATA -0.2832
-4.7624 DIREKTOR -0.3010
-4.4613 DIREKTORICA -0.3010
-4.7624 DIREKTOROM -0.3010
-4.7624 DIREKTORU -0.3004
-4.7624 DISK -0.3010
-4.4613 DISKOTEKE -0.2776
-4.7624 DI`E -0.3009
-4.7624 DJECA -0.3010
-4.7624 DJECE -0.3010
-4.7624 DJECI -0.2989
-4.4613 DJECU -0.3006
-4.7624 DJEDA -0.3010
-4.7624 DJEDAMRAZIJA -0.3010
-4.2852 DJELA -0.2832
-4.4613 DJELATNICI -0.3010
-4.7624 DJELATNIK -0.3010
-4.2852 DJELATNIKA -0.2938
-4.7624 DJELATNOST -0.2832
-4.4613 DJELATNOSTIMA -0.3008
-4.7624 DJELIMA -0.2963
-4.4613 DJELO -0.3006
-3.6162 DJELOMICE -0.2990
-4.7624 DJELOMI~NIM -0.3010
-4.1603 DJELOMI~NO -0.3010
-3.9173 DJELOVATI -0.2967
-4.4613 DJELUJE -0.2957
-4.7624 DJETETA -0.2832
-4.4613 DJEVOJ~ICA -0.2963
-4.4613 DJEVOJ~ICI -0.3010
-4.7624 DJEVOJ~ICU -0.3003
-4.7624 DJE~AK -0.2947
-4.2852 DJE~JE -0.3010
-4.7624 DJE~JEG -0.3010
-3.6484 DNEVNA -0.2989
-4.7624 DNEVNE -0.3010
-4.4613 DNEVNI -0.3010
-4.7624 DNEVNOM -0.3010
-2.3152 DO -0.2894
-4.1603 DOBA -0.2935
-4.0634 DOBAR -0.3009
-4.7624 DOBIJE -0.3010
-4.7624 DOBILA -0.3010
-4.4613 DOBILI -0.2994
-4.4613 DOBIO -0.2963
-3.9173 DOBITI -0.2967
-4.7624 DOBIVAJU -0.2967
-4.4613 DOBRE -0.2832
-3.7210 DOBRO -0.2738
-4.7624 DOBROM -0.3010
-4.7624 DOBROME -0.3010
-4.7624 DOBROTE -0.3010
-4.7624 DOBROTU -0.2832
-4.7624 DODAJMO -0.2994
-4.4613 DODAJU^I -0.2989
-3.8593 DODAO -0.2760
-4.7624 DODATI -0.2947
-4.7624 DODIJELILA -0.3010
-4.7624 DODIJELJENA -0.3010
-4.4613 DODJELI -0.3010
-4.4613 DODJELJENI -0.2994
-4.1603 DOGA}AJA -0.2698
-4.4613 DOGODILA -0.2966
-4.4613 DOGODILI -0.3008
-4.1603 DOGODIO -0.2923
-4.7624 DOGODITI -0.2994
-4.2852 DOGOVOR -0.2824
-4.7624 DOGOVORENIH -0.3008
-4.7624 DOGOVORENO -0.2963
-4.4613 DOGOVORILE -0.3002
-4.7624 DOGOVORIO -0.2938
-4.7624 DOHI -0.3010
-4.7624 DOJAVE -0.3003
-3.8081 DOK -0.2945
-4.7624 DOKA -0.3009
-4.7624 DOKAZ -0.2963
-4.7624 DOKAZA -0.2994
-4.7624 DOKAZE -0.3003
-4.7624 DOKTOR -0.3000
-4.7624 DOKTORA -0.3010
-4.7624 DOKTORU -0.3010
-4.7624 DOKUMENT -0.3001
-4.7624 DOKUMENTACIJE -0.3008
-4.4613 DOKUMENTOM -0.2938
-4.7624 DOKUMENTU -0.3004
-4.1603 DOLAR -0.3010
-3.6162 DOLARA -0.2756
-4.4613 DOLASKA -0.2946
-4.7624 DOLAZAK -0.3008
-3.7624 DOLINA -0.2998
-4.7624 DOLINI -0.3010
-4.2852 DOMA -0.3009
-4.7624 DOMA^I -0.2947
-4.4613 DOMA^IN -0.3010
-4.7624 DOMINIRAJU -0.3010
-4.2852 DOMI^ -0.2757
-4.7624 DOMOVA -0.3010
-4.7624 DOMOVIMA -0.2947
-4.7624 DOMOVINSKE -0.3010
-4.7624 DOMOVINSKOG -0.3010
-4.7624 DOMOVINSKOGA -0.3010
-4.7624 DOMOVINSKOM -0.3010
-4.4613 DOMU -0.3008
-4.7624 DONACIJA -0.2947
-4.1603 DONACIJE -0.2831
-4.7624 DONATORSKOG -0.3010
-4.7624 DONEDAVNO -0.2963
-4.4613 DONESENA -0.2953
-4.7624 DONIJELA -0.2947
-4.1603 DONIJETI -0.3010
-4.7624 DONIRATI -0.3008
-4.7624 DONJA -0.3010
-4.7624 DONJEG -0.3010
-3.8081 DONJI -0.3010
-4.7624 DONOSI -0.3010
-4.7624 DONOSIO -0.3010
-4.7624 DONO{ENJEM -0.3010
-4.7624 DONO{ENJU -0.3010
-4.7624 DOPIS -0.3010
-4.7624 DOPISNICA -0.3010
-4.7624 DOPISNIK -0.3010
-4.7624 DOPREDSJEDNIK -0.3008
-4.7624 DOPREMI -0.3009
-4.7624 DOPREMIO -0.3010
-4.7624 DOPUNSKE -0.3010
-4.7624 DOPUNSKIM -0.3010
-4.7624 DOPUSTILI -0.2994
-4.7624 DOPU{TENA -0.3010
-3.9173 DOSAD -0.2828
-4.4613 DOSADA -0.2963
-4.7624 DOSADA{NJEG -0.3010
-4.4613 DOSADA{NJI -0.3010
-4.4613 DOSADA{NJIH -0.3003
-4.7624 DOSLJEDNO -0.2947
-4.7624 DOSTAVITI -0.3010
-4.7624 DOSTAVLJENA -0.3005
-4.7624 DOVEDENI -0.2957
-4.7624 DOZNA -0.3010
-4.4613 DOZNAJE -0.2987
-4.1603 DOZNAJEMO -0.2994
-4.4613 DOZVOLE -0.2967
-4.1603 DO^I -0.2946
-4.7624 DO`IVIO -0.2985
-4.7624 DO`IVLJAVA -0.2987
-4.7624 DO`IVOTNU -0.3010
-4.7624 DO{LI -0.3010
-4.7624 DO{LO -0.3010
-4.7624 DO}U -0.2967
-4.7624 DO~ARATI -0.3010
-4.1603 DO~EK -0.2946
-4.7624 DO~EKA -0.2986
-4.1603 DO~EKALA -0.3009
-4.2852 DO~EKALI -0.2940
-4.7624 DO~EKANA -0.3010
-4.4613 DO~EKAO -0.3010
-4.7624 DO~EKU -0.3008
-4.7624 DRAGUTIN -0.3010
-4.4613 DRAMA -0.3010
-4.4613 DRAMI -0.3010
-4.4613 DRAMSKA -0.3010
-3.7210 DRAVA -0.2804
-4.7624 DRA`EN -0.3010
-4.7624 DRA{KOVI^A -0.2832
-4.7624 DRNOV{EK -0.2832
-4.7624 DROGA -0.2832
-4.2852 DROGE -0.2819
-4.7624 DRUGA -0.3000
-3.6162 DRUGDJE -0.2817
-4.0634 DRUGE -0.2831
-3.9842 DRUGI -0.2889
-4.7624 DRUGO -0.3010
-4.4613 DRUGOG -0.2832
-4.4613 DRUGOGA -0.3007
-4.7624 DRUGOJ -0.3010
-4.2852 DRUGOM -0.3007
-4.7624 DRUGOME -0.3010
-4.4613 DRU`BA -0.3010
-4.7624 DRU`IO -0.2832
-4.7624 DRU{TVENE -0.3010
-4.7624 DRVENIK -0.3010
-4.7624 DRVENIKU -0.3010
-4.0634 DR`AVA -0.2944
-4.2852 DR`AVAMA -0.2757
-3.7624 DR`AVE -0.2709
-4.1603 DR`AVI -0.2936
-4.7624 DR`AVLJANA -0.2832
-4.7624 DR`AVLJANINA -0.2986
-4.7624 DR`AVLJANKA -0.3010
-4.7624 DR`AVNA -0.3010
-4.7624 DR`AVNE -0.3010
-4.7624 DR`AVNIH -0.3010
-4.7624 DR`AVNIM -0.3010
-4.4613 DR`AVNO -0.3010
-3.7624 DR`AVNOG -0.3009
-3.5071 DR`AVNOGA -0.3008
-4.4613 DR`AVNOJ -0.3010
-4.7624 DR`AVNOM -0.3010
-4.4613 DR`AVU -0.2832
-4.7624 DR`E -0.3010
-4.7624 DR`I -0.2994
-4.7624 DR`I^A -0.3010
-4.4613 DUBRAVKA -0.3010
-4.1603 DUBRAVKO -0.3010
-4.7624 DUBRAVKU -0.3010
-4.7624 DUBROVA~KA -0.3010
-4.7624 DUBROVA~KE -0.3010
-4.7624 DUBROVA~KIH -0.3010
-4.2852 DUBROVA~KO -0.3010
-4.7624 DUBROVA~KOGA -0.3010
-4.7624 DUBROVA~KOJ -0.3010
-4.7624 DUBROVA~KOM -0.3010
-4.7624 DUBROVA~KOME -0.3010
-4.4613 DUBROVNIK -0.2899
-4.2852 DUBROVNIKA -0.2946
-4.4613 DUBROVNIKU -0.2808
-4.4613 DUBROV~ANI -0.2947
-4.1603 DUGA -0.3000
-4.4613 DUGI -0.3010
-4.7624 DUGIM -0.2947
-4.7624 DUGO -0.3010
-4.7624 DUGOGODI{NJA -0.3010
-4.7624 DUGOGODI{NJEG -0.3010
-4.7624 DUGOGODI{NJI -0.3010
-4.7624 DUGORO~NE -0.2994
-4.7624 DUGORO~NU -0.3010
-4.7624 DUGOVA -0.3010
-4.7624 DUGOVE -0.3010
-4.7624 DUHOVNOM -0.2947
-4.4613 DULJE -0.3008
-4.4613 DULJIH -0.3010
-4.7624 DUMANI^ -0.2947
-3.8593 DUNAV -0.2806
-3.8081 DU` -0.3003
-4.7624 DU`A -0.3010
-4.7624 DU`AN -0.2967
-4.7624 DU`E -0.2967
-4.7624 DU`IH -0.3010
-4.7624 DU`IM -0.3010
-4.7624 DU`NICI -0.3010
-4.0634 DU`NOSNICI -0.2935
-4.4613 DU`NOSNICIMA -0.2831
-4.2852 DU`NOSNIK -0.3009
-4.7624 DU`NOSNIKA -0.2832
-4.2852 DU`NOST -0.3008
-4.4613 DU`NOSTI -0.2938
-4.7624 DU{ANA -0.3010
-2.6484 DVA -0.2484
-2.7667 DVADESET -0.2580
-4.2852 DVADESETAK -0.3007
-4.7624 DVADESETOG -0.3010
-4.4613 DVAJU -0.3010
-2.9173 DVANAEST -0.2619
-4.4613 DVANAESTOGA -0.3010
-4.7624 DVAPUT -0.3008
-3.3474 DVIJE -0.2942
-4.7624 DVIJETISU^ITE -0.3010
-4.1603 DVIJU -0.2999
-3.3310 DVJESTO -0.2740
-4.7624 DVJESTOTINJAK -0.3010
-4.7624 DVODOMNOG -0.3010
-4.4613 DVOJA -0.3010
-4.4613 DVOJE -0.3000
-4.4613 DVOJICA -0.3010
-4.7624 DVOR -0.2832
-4.7624 EDUKATIVNIH -0.3010
-4.7624 EDUKATIVNU -0.3010
-4.7624 EFBIAJA -0.2832
-4.7624 EFENDI -0.3010
-4.7624 EGEJSKOME -0.3009
-4.7624 EGIPAT -0.2832
-4.2852 EKIPA -0.2782
-4.7624 EKIPAMA -0.3007
-4.2852 EKIPE -0.2985
-4.7624 EKOLO{KE -0.3010
-4.7624 EKOLO{KIM -0.3010
-4.7624 EKOLO{KU -0.3010
-4.7624 EKSPLOZIJA -0.2987
-4.2852 EKSPLOZIJI -0.2957
-4.7624 EKSPLOZIJU -0.2957
-4.7624 EKSPLOZIVA -0.2832
-4.7624 EKSPLOZIVNA -0.3010
-4.2852 ELEKTRONI~KI -0.3010
-4.7624 ELITE -0.2832
-4.7624 ELIZEJSKE -0.3010
-4.7624 EMISIJE -0.2832
-4.0634 EMISIJU -0.3010
-4.7624 EMPET -0.2938
-4.7624 ENDOSKOPSKE -0.3010
-4.7624 ENGLAJTNER -0.3010
-4.7624 ENKLAVE -0.2832
-4.4613 EPICENTRA -0.3010
-4.7624 EPICENTROM -0.2957
-4.7624 EPICENTRU -0.2832
-4.7624 EPIDEMIJE -0.3010
-4.4613 ER -0.3010
-4.7624 ERAK -0.2832
-4.4613 ERBAS -0.2831
-4.7624 ERBASA -0.2832
-4.7624 ERBILU -0.2832
-4.4613 ERDOGAN -0.2757
-4.7624 ERO -0.3010
-4.7624 ERTEELU -0.2947
-4.7624 ESBEUA -0.2938
-4.7624 ESEMES -0.3010
-4.4613 ESKOBAR -0.2967
-4.7624 ESTONIJI -0.2986
-4.7624 ETI~KI -0.3010
-4.4613 ETNA -0.2943
-3.7624 EURA -0.2831
-4.7624 EUROATLANSKIM -0.3010
-4.7624 EUROATLANTSKE -0.3010
-4.7624 EUROPE -0.3010
-4.0634 EUROPI -0.2832
-4.0634 EUROPSKA -0.3010
-3.6484 EUROPSKE -0.3009
-4.2852 EUROPSKI -0.3010
-4.4613 EUROPSKIH -0.3010
-4.7624 EUROPSKOG -0.3010
-3.9842 EUROPSKOJ -0.3010
-4.7624 EUROPSKOM -0.3010
-4.1603 EUROPSKU -0.3010
-4.2852 EUROPU -0.2832
-4.7624 EVAKUACIJOM -0.2963
-4.7624 EVAKUACIJU -0.3010
-4.7624 EVAKUIRANO -0.3003
-4.7624 EVIDENTIRATI -0.3008
-4.7624 FABIJA -0.3010
-4.7624 FABIJANOVI^ -0.3005
-4.7624 FARMACEUTSKE -0.3010
-4.7624 FENOMEN -0.3007
-4.4613 FERAL -0.2997
-4.7624 FERENC -0.3010
-4.4613 FERNANDEZ -0.2832
-4.7624 FESTIVALOM -0.3010
-4.7624 FEZABADU -0.2832
-4.7624 FIATOM -0.3010
-4.4613 FIKSNE -0.3010
-4.7624 FILHARMONI~ARI -0.3009
-4.1603 FILM -0.3010
-4.7624 FILMA -0.2832
-4.7624 FILMSKI -0.3010
-4.4613 FILMU -0.2938
-4.7624 FINANCIJA -0.2832
-4.7624 FINANCIJSKI -0.3010
-4.7624 FINANCIJSKIH -0.2832
-4.7624 FINANCIRA -0.3010
-4.2852 FINSKA -0.2806
-4.4613 FINSKIM -0.3010
-4.4613 FI{ER -0.2832
-4.7624 FLORIN~I^ -0.2938
-4.7624 FLOTAU -0.2832
-4.7624 FLOTI -0.3010
-4.7624 FOLKLORNOG -0.3010
-4.7624 FORMALNO -0.3010
-4.7624 FORMIRA -0.2987
-4.7624 FORMIRANJE -0.3010
-4.7624 FORTUNI -0.2938
-4.7624 FORUM -0.2985
-4.7624 FRANC -0.3010
-4.7624 FRANCUSKE -0.2832
-4.4613 FRANCUSKI -0.3007
-4.7624 FRANCUSKOJ -0.3007
-4.7624 FRANCUZ -0.2832
-4.4613 FRANJE -0.3010
-4.7624 FRANJO -0.3010
-4.7624 FRANS -0.3010
-4.4613 FRANSPRES -0.2766
-4.4613 FRANSPRESA -0.2957
-4.7624 FRONTA -0.2938
-4.4613 FRONTALNI -0.3010
-4.1603 FRONTALNIM -0.3010
-4.4613 FRONTE -0.2975
-4.4613 FRONTOM -0.3007
-3.6832 GA -0.2935
-4.7624 GALERIJA -0.3010
-4.7624 GALOVI^ -0.2832
-4.7624 GARA`E -0.3008
-4.7624 GARDE -0.2832
-4.4613 GARSON -0.2776
-4.7624 GASITELJI -0.3000
-3.9173 GAZE -0.2766
-3.6832 GDJE -0.2899
-4.7624 GECAN -0.2938
-4.7624 GENERACIJAMA -0.2832
-4.0634 GENERAL -0.2831
-4.4613 GENERALA -0.3010
-4.7624 GENERALNOG -0.3010
-4.7624 GENOCID -0.2938
-4.2852 GENOCIDA -0.2884
-4.7624 GEOFIZI~KOG -0.3008
-4.7624 GERHARD -0.3010
-4.7624 GERILAC -0.2832
-4.7624 GERILACA -0.2993
-4.7624 GERILCI -0.3010
-4.7624 GESEDAMNAEST -0.3009
-4.1603 GIMNAZIJE -0.2766
-4.7624 GLADI -0.2947
-4.4613 GLAS -0.3010
-4.7624 GLASA~KA -0.3010
-4.7624 GLASNOGOVORNICE -0.3010
-4.0634 GLASNOGOVORNIK -0.2938
-4.0634 GLASOVA -0.2985
-4.7624 GLASOVALA -0.2967
-4.7624 GLASOVE -0.2986
-4.7624 GLASUJU -0.2985
-4.2852 GLAVNA -0.3010
-4.7624 GLAVNE -0.3010
-3.9173 GLAVNI -0.2999
-4.7624 GLAVNIH -0.3010
-4.4613 GLAVNIM -0.3010
-4.7624 GLAVNO -0.3010
-4.4613 GLAVNOGA -0.3010
-4.7624 GLAVNOJ -0.3010
-4.7624 GLAVNOM -0.3010
-4.7624 GLAVNOME -0.3010
-4.7624 GLAVOBOLJE -0.2832
-4.2852 GLAVOBOLJU -0.2802
-4.7624 GLAVU -0.2832
-4.7624 GLAZBA -0.3005
-4.7624 GLAZBENICI -0.2967
-4.7624 GLAZBENU -0.3010
-4.0634 GLOBUS -0.2985
-4.2852 GLOBUSA -0.2776
-4.4613 GLOBUSI -0.2985
-4.4613 GLUMICU -0.2957
-4.7624 GOD -0.3010
-3.4836 GODINA -0.2766
-3.1713 GODINE -0.2665
-4.1603 GODINI -0.2831
-3.5863 GODINU -0.2798
-4.7624 GODI{NJE -0.3010
-4.7624 GODI{NJEG -0.3010
-4.7624 GODI{NJICE -0.3010
-4.4613 GOJ~ETA -0.2947
-4.4613 GOLEMI -0.3010
-4.7624 GOLFA -0.2832
-4.2852 GONG -0.2949
-4.2852 GORA -0.2967
-4.7624 GORAN -0.3010
-4.7624 GORANA -0.3010
-4.4613 GORDANA -0.3000
-4.2852 GORE -0.2874
-4.7624 GORI -0.3010
-4.4613 GORICI -0.3009
-4.4613 GORJU -0.3007
-4.7624 GORNJOJ -0.3010
-4.7624 GORSKI -0.3010
-4.2852 GORSKIM -0.2947
-4.0634 GORSKOM -0.3010
-4.4613 GORSKOME -0.3010
-4.7624 GORU -0.2998
-4.4613 GOSPI^ -0.2832
-4.2852 GOSPODARSKE -0.2947
-4.7624 GOSPODARSKI -0.3010
-4.7624 GOSPODARSKO -0.3010
-4.7624 GOSPODARSKU -0.3010
-4.2852 GOSPODARSTVA -0.2910
-4.7624 GOSTI -0.3009
-4.4613 GOTOVINA -0.2757
-4.7624 GOTOVINU -0.3010
-3.5863 GOTOVO -0.2929
-4.4613 GOVORE^I -0.3003
-4.2852 GOVORI -0.2970
-4.7624 GOVORILI -0.3003
-4.2852 GOVORIO -0.2899
-4.0634 GRAD -0.3008
-4.0634 GRADA -0.2831
-4.4613 GRADI -0.3003
-4.7624 GRADNJE -0.2832
-4.7624 GRADNJU -0.3010
-4.4613 GRADONA~ELNICA -0.3010
-4.7624 GRADONA~ELNIK -0.3010
-4.7624 GRADONA~ELNIKOM -0.3010
-4.0634 GRADOVA -0.2806
-4.0634 GRADOVIMA -0.2782
-4.4613 GRADSKA -0.3010
-4.7624 GRADSKE -0.3010
-4.4613 GRADSKIM -0.3010
-4.7624 GRADSKOGA -0.3010
-4.4613 GRADSKOM -0.3010
-3.9173 GRADU -0.2766
-4.7624 GRANATOM -0.2963
-4.4613 GRANICE -0.2967
-4.7624 GRANI~NOG -0.3010
-4.7624 GRANI~NOME -0.3010
-4.7624 GRANSKOG -0.2986
-4.7624 GRAN}INOVOM -0.3010
-4.7624 GRA}ANA -0.3010
-4.1603 GRA}ANI -0.2830
-4.4613 GRA}ANIMA -0.2832
-4.7624 GRA}ANSKI -0.3010
-3.9173 GREBEN -0.2814
-4.7624 GREGORIJANSKOM -0.3010
-4.7624 GRIPA -0.3010
-4.0634 GRIPE -0.2831
-4.7624 GRIPOM -0.2832
-4.7624 GRIPU -0.2938
-4.7624 GRKOVI^A -0.2832
-3.7624 GRMLJAVINA -0.2726
-4.1603 GRMLJAVINE -0.2766
-3.8593 GRMLJAVINOM -0.2731
-4.7624 GROBNICA -0.2957
-4.7624 GROZNICE -0.2986
-4.7624 GROZNICU -0.3008
-4.7624 GRUDALI{TE -0.2985
-4.7624 GUBE -0.2832
-4.7624 GUBI -0.3008
-4.7624 GUBICIMA -0.2832
-4.7624 GUDELJA -0.2832
-4.7624 GUST -0.2963
-4.4613 GUVERNER -0.3009
-4.7624 GU`VE -0.2967
-4.2852 GU`VI -0.2913
-4.7624 GVANTANAMO -0.2832
-4.4613 HA -0.3010
-4.7624 HAAGU -0.2832
-4.7624 HADEZEA -0.2947
-4.7624 HAENESA -0.3010
-4.4613 HAGU -0.2832
-4.7624 HAJDUKA -0.3010
-4.4613 HAJNC -0.3010
-4.7624 HAK -0.3010
-4.7624 HAKA -0.3010
-4.7624 HAKNA -0.2832
-4.7624 HAKNOVO -0.3010
-4.4613 HAMAS -0.2766
-4.7624 HAMASA -0.2993
-4.4613 HANENOM -0.2947
-4.7624 HAREDSA -0.3010
-4.7624 HARVARD -0.3010
-4.2852 HATEA -0.2825
-4.7624 HATEOM -0.2832
-4.7624 HATEU -0.2832
-4.7624 HATEVE -0.3010
-4.7624 HATEVEU -0.2832
-4.4613 HAUARDA -0.3010
-4.7624 HAVARD -0.2832
-4.7624 HAVIJEROM -0.3010
-4.4613 HAZEZEO -0.2818
-4.7624 HAZEZEOA -0.2832
-4.7624 HA`EU -0.2832
-4.7624 HA{KA -0.3010
-4.4613 HA{KI -0.3010
-4.4613 HA{KIM -0.3010
-4.7624 HA{KOME -0.3010
-3.7624 HEBRANG -0.2714
-4.7624 HEKTARA -0.3010
-4.2852 HELIKOPTERA -0.2822
-4.4613 HERCEGOVINE -0.2938
-4.1603 HERCEGOVINI -0.2644
-4.7624 HERKUL -0.3010
-4.7624 HEROINOM -0.2832
-3.4836 HIDROMETEOROLO{KOG -0.3008
-3.9842 HIDROMETEOROLO{KOGA -0.3008
-4.4613 HILARI -0.3010
-4.7624 HIPER -0.3010
-4.7624 HIPOKRATOVOM -0.3010
-4.7624 HIRSI -0.2832
-4.7624 HITAN -0.2832
-4.7624 HITNA -0.3010
-4.7624 HITNE -0.3009
-4.7624 HITNOJ -0.3010
-4.7624 HITNU -0.3010
-4.4613 HJUA -0.2884
-4.7624 HLADNA -0.3010
-4.7624 HLADNI -0.3010
-4.2852 HLADNIJE -0.2831
-4.7624 HLADNO -0.3001
-4.4613 HLADNOM -0.3010
-4.1603 HLADNO^E -0.2766
-4.7624 HODO~ASNIKA -0.2967
-4.7624 HODO~ASNI~KI -0.3010
-4.7624 HODO~A{^A -0.3010
-4.0634 HONG -0.3010
-4.7624 HONORARA -0.2985
-4.7624 HORVAT -0.3010
-4.7624 HOTELIMA -0.3010
-4.4613 HO^E -0.3010
-4.7624 HO^E{ -0.2832
-4.7624 HO~EVAR -0.2832
-4.7624 HRABROJ -0.3010
-4.7624 HRANE -0.2985
-4.7624 HRANI -0.3008
-4.2852 HRANU -0.2957
-4.7624 HRASTI^ -0.2832
-4.7624 HRISTOS -0.2987
-4.7624 HRVATA -0.3005
-4.2852 HRVATE -0.2957
-4.7624 HRVATICA -0.2832
-3.3644 HRVATSKA -0.2759
-3.3310 HRVATSKE -0.2759
-3.6162 HRVATSKI -0.2942
-3.9173 HRVATSKIH -0.2946
-4.0634 HRVATSKIM -0.3010
-4.4613 HRVATSKO -0.3010
-4.7624 HRVATSKOBO{NJA~KOM -0.3010
-3.8593 HRVATSKOG -0.3008
-3.7210 HRVATSKOGA -0.3009
-3.8081 HRVATSKOJ -0.2756
-4.0634 HRVATSKOM -0.2700
-4.4613 HRVATSKOME -0.3010
-3.9842 HRVATSKU -0.2756
-4.7624 HRVOJE -0.3010
-4.4613 HUSEINA -0.2884
-4.7624 HVARA -0.2832
-4.7624 HVARU -0.2832
-1.8412 I -0.2117
-4.4613 IAKO -0.2962
-4.7624 IDENTIFICIRATI -0.3010
-4.4613 IDU^E -0.2999
-4.7624 IDU^EM -0.3010
-4.2852 IDU^IH -0.2996
-4.7624 IGARA -0.2947
-4.4613 IGIT -0.2967
-4.7624 IGOR -0.3010
-4.7624 IGRU -0.3010
-4.1603 IH -0.2778
-4.7624 ILEGALAN -0.2947
-4.7624 ILEGALNOG -0.3010
-3.0142 ILI -0.2901
-4.7624 ILI^A -0.2832
-3.8593 ILOK -0.2777
-3.6832 IM -0.2924
-3.7210 IMA -0.2945
-3.9842 IMAJU -0.3008
-4.4613 IMALA -0.2832
-4.7624 IMALI -0.3010
-4.7624 IMAMO -0.3010
-4.2852 IMAO -0.2986
-3.5863 IMATI -0.2822
-4.0634 IME -0.2986
-4.1603 IMENA -0.2945
-4.7624 IMENOVATI -0.3009
-4.7624 IMOVINSKU -0.3010
-4.7624 IMPULSI -0.2938
-4.1603 INA~E -0.2967
-4.4613 INDIJA -0.2959
-4.7624 INDIJE -0.2832
-4.7624 INDIJI -0.2947
-4.4613 INDIJSKE -0.3010
-4.7624 INDIJSKIM -0.3010
-4.4613 INDIJSKOM -0.3010
-4.4613 INDIJSKOME -0.2832
-4.7624 INDIPENDANT -0.2938
-4.7624 INDIPENDENT -0.2832
-4.4613 INDIPENDENTA -0.2832
-4.7624 INDIVIDUALNIH -0.3010
-4.7624 INDONEZIJA -0.3009
-4.4613 INDONEZIJE -0.3010
-4.7624 INDONEZIJI -0.2832
-4.7624 INDONEZIJSKA -0.3009
-4.4613 INDONEZIJSKOG -0.3010
-4.7624 INDONEZIJSKOJ -0.3010
-4.7624 INDONEZIJSKOM -0.3010
-4.7624 INDONE`ANA -0.3010
-4.7624 INDUSTRIJSKI -0.3010
-4.7624 INDUSTROGRADNJE -0.2832
-4.4613 INFO -0.2832
-4.4613 INFORMACIJA -0.3002
-4.2852 INFORMACIJAMA -0.2822
-4.4613 INFORMACIJE -0.2828
-4.7624 INFORMACIJI -0.3001
-4.7624 INFORMACIJSKI -0.3010
-4.4613 INFORMATI~ARA -0.2832
-4.7624 INFORMATI~ARI -0.3010
-4.7624 INFORMATI~KA -0.3010
-4.7624 INFORMATI~KIH -0.3010
-4.7624 INFORMATI~KOJ -0.3010
-4.4613 INSPEKCIJA -0.2938
-4.7624 INSPEKCIJE -0.3010
-4.7624 INSPEKCIJSKA -0.3010
-4.7624 INSPEKTOR -0.3010
-4.7624 INSTITUCIJE -0.3010
-4.4613 INSTITUCIONALNA -0.3010
-4.7624 INTEGRACIJAMA -0.2832
-4.2852 INTEGRACIJE -0.2830
-4.7624 INTENZITETOM -0.2957
-4.4613 INTENZIVNO -0.2987
-4.7624 INTERES -0.2832
-4.7624 INTERESIMA -0.2947
-4.7624 INTERESOM -0.3010
-4.4613 INTERNETA -0.2832
-4.7624 INTERNETSKE -0.3010
-4.7624 INTERNETU -0.2938
-4.7624 INTERVENCIJA -0.3010
-4.7624 INTERVENCIJE -0.3010
-4.7624 INTERVENCIJU -0.3010
-4.7624 INTERVENTNA -0.3009
-4.7624 INTERVJUU -0.3010
-4.7624 INVALIDA -0.2947
-4.4613 INZBRUKU -0.2938
-4.7624 INZISTIRAJU -0.2967
-3.9842 IPAK -0.2851
-4.1603 IRAK -0.2828
-4.1603 IRAKA -0.2782
-3.6484 IRAKU -0.2684
-4.7624 IRA~KA -0.3010
-4.7624 IRA~KE -0.3009
-4.7624 IRA~KI -0.3010
-4.4613 IRA~KIM -0.3010
-4.7624 IRA~KO -0.3010
-4.4613 IRA~KOG -0.3010
-4.4613 IRA~KOGA -0.3010
-4.4613 IRA~KOM -0.3010
-4.7624 IRA~KOME -0.3010
-4.7624 IRA~KU -0.3010
-4.7624 IRSKOGA -0.3010
-4.7624 ISKAZALI -0.3010
-4.4613 ISKLJU~IVO -0.2913
-4.7624 ISKORIJENITI -0.3010
-4.2852 ISKORISTITI -0.2985
-4.7624 ISKORI{TAVAJU -0.2957
-4.7624 ISKORI{TAVAO -0.3010
-4.7624 ISKRENIM -0.3010
-4.4613 ISKUSTVO -0.3010
-4.7624 ISLAMA -0.3010
-4.7624 ISLAMISTIMA -0.2938
-4.7624 ISLAMISTI~KA -0.3010
-4.7624 ISLAMISTI~KE -0.3010
-4.7624 ISLAMISTI~KI -0.3010
-4.4613 ISLAMISTI~KIM -0.3010
-4.7624 ISLAMISTI~KOG -0.3010
-4.7624 ISLAMSKE -0.3010
-4.7624 ISLAMSKI -0.3010
-4.4613 ISLAMSKIH -0.3010
-4.7624 ISMAIL -0.2938
-4.7624 ISPALA -0.3005
-4.4613 ISPITANIKA -0.2782
-4.1603 ISPITIVANJA -0.2831
-4.7624 ISPITIVANJE -0.3010
-4.4613 ISPITIVANJIMA -0.3010
-4.4613 ISPITIVANJU -0.3010
-4.7624 ISPLATITI -0.3010
-4.7624 ISPLATIVOST -0.2832
-4.7624 ISPLA^ENE -0.3010
-4.7624 ISPRAVNO -0.3010
-4.1603 ISPRED -0.3010
-4.7624 ISPRI~ANA -0.3010
-4.7624 ISPROVOCIRANE -0.3010
-4.7624 ISPUNI -0.3009
-4.4613 ISPUNILA -0.3009
-4.7624 ISPUNITI -0.2832
-4.4613 ISPUSTILA -0.3008
-4.4613 ISPU{TEN -0.3010
-4.7624 ISTA -0.3010
-4.7624 ISTAKNULA -0.2963
-3.7624 ISTAKNUO -0.2759
-4.1603 ISTAMBULU -0.2776
-4.2852 ISTANBULU -0.2757
-4.4613 ISTE -0.3006
-4.7624 ISTI -0.3010
-4.4613 ISTINU -0.2979
-3.7624 ISTI~E -0.2733
-4.0634 ISTI~U -0.2874
-4.4613 ISTI~U^I -0.2827
-4.7624 ISTJECAO -0.3010
-4.7624 ISTJE~E -0.3010
-4.1603 ISTO -0.2826
-4.0634 ISTODOBNO -0.2988
-4.7624 ISTOG -0.3010
-4.7624 ISTOGA -0.3010
-4.4613 ISTOK -0.2832
-4.7624 ISTOKA -0.2947
-4.1603 ISTOKU -0.2830
-4.7624 ISTOME -0.3010
-4.7624 ISTOVRSNE -0.3010
-3.9842 ISTO~NIM -0.3010
-4.2852 ISTO~NJAK -0.2946
-4.1603 ISTO~NOJ -0.3009
-4.7624 ISTO~NOM -0.3007
-4.7624 ISTRA -0.2986
-4.4613 ISTRAGA -0.3002
-4.2852 ISTRAGE -0.3003
-4.1603 ISTRAGU -0.2931
-4.4613 ISTRA`I -0.3010
-4.7624 ISTRA`ITELJA -0.3010
-4.7624 ISTRA`IVANJE -0.3010
-4.7624 ISTRA`NI -0.3010
-4.7624 ISTRA`NOM -0.3010
-4.7624 ISTRA`UJU -0.3010
-4.2852 ISTRE -0.2832
-4.4613 ISTRGNUTE -0.2994
-4.7624 ISTRI -0.3004
-4.4613 ISTVUD -0.2985
-4.4613 ITALIJA -0.2963
-4.7624 ITALIJE -0.3008
-4.1603 ITALIJI -0.2937
-4.7624 ITALIJOM -0.2832
-3.9842 IVAN -0.3010
-4.7624 IVANA -0.3010
-4.7624 IVANE -0.3010
-4.7624 IVANKA -0.3010
-4.4613 IVANKOVI^A -0.2832
-4.7624 IVANOV -0.3009
-4.4613 IVAN~I^ -0.2919
-4.7624 IVE -0.3010
-4.1603 IVICA -0.3010
-4.4613 IVICE -0.3010
-4.0634 IVO -0.3010
-4.7624 IVOM -0.3010
-2.8990 IZ -0.2813
-4.7624 IZA -0.3010
-4.7624 IZABRAN -0.2963
-4.1603 IZABRATI -0.3008
-4.7624 IZASLANSTVO -0.3010
-4.7624 IZAZVALA -0.2963
-4.7624 IZAZVAO -0.3010
-4.2852 IZAZVATI -0.2946
-4.7624 IZA{LO -0.3008
-4.7624 IZBACIVATI -0.3010
-4.7624 IZBA~EN -0.3005
-4.7624 IZBJEGAVANJE -0.3010
-4.4613 IZBJEGLE -0.3010
-4.2852 IZBOR -0.3010
-3.7210 IZBORA -0.2662
-3.9173 IZBORE -0.2673
-3.8081 IZBORI -0.2705
-3.8081 IZBORIMA -0.2560
-4.7624 IZBORNA -0.3010
-4.7624 IZBORNE -0.3010
-4.4613 IZBORNI -0.3010
-4.7624 IZBORNIH -0.3010
-4.4613 IZBORNO -0.3010
-4.7624 IZBORNOG -0.3010
-4.2852 IZBORNOGA -0.3009
-3.9842 IZBORU -0.2983
-4.7624 IZDANJU -0.3010
-4.7624 IZDVAJA -0.3010
-4.7624 IZDVAJAMO -0.2832
-4.7624 IZDVAJANJA -0.2832
-4.7624 IZDVOJENIM -0.3010
-4.7624 IZDVOJITI -0.3008
-4.7624 IZETBEGOVI^ -0.3010
-4.2852 IZGLEDI -0.3010
-4.7624 IZGORJELO -0.3008
-4.7624 IZGRADITI -0.3009
-4.4613 IZGRADNJA -0.3009
-4.4613 IZGRADNJI -0.3010
-4.7624 IZGRED -0.3010
-4.7624 IZGREDA -0.2957
-4.7624 IZGREDI -0.2994
-4.7624 IZGREDIMA -0.3010
-4.7624 IZGUBILA -0.2963
-4.4613 IZI^I -0.3005
-4.7624 IZJASNILO -0.2985
-4.7624 IZJAVA -0.2963
-4.7624 IZJAVE -0.3010
-4.4613 IZJAVILA -0.2963
-3.5319 IZJAVIO -0.2941
-4.7624 IZJAVLJIVALA -0.2957
-4.7624 IZJAVLJUJE -0.2994
-4.2852 IZJAVU -0.2776
-4.7624 IZLAGATI -0.2957
-4.4613 IZLAZE -0.2832
-4.7624 IZLAZI -0.3005
-4.7624 IZLETE -0.2832
-4.4613 IZLO`BE -0.3010
-4.7624 IZLO`BU -0.3010
-4.7624 IZLO`ENE -0.3010
-3.2183 IZME}U -0.2862
-4.2852 IZMJENAMA -0.3010
-4.7624 IZMJENE -0.3010
-4.1603 IZNAD -0.3007
-4.7624 IZNIJET -0.2997
-4.1603 IZNIMNO -0.3010
-4.4613 IZNOS -0.3008
-4.7624 IZNOSE -0.2947
-4.4613 IZNOSI -0.2994
-4.7624 IZNOSU -0.2998
-4.7624 IZOLACIJI -0.3009
-4.4613 IZOSTALO -0.3010
-4.7624 IZRADA -0.3010
-4.7624 IZRADI -0.3010
-4.2852 IZRAELACA -0.2766
-4.2852 IZRAELCE -0.2756
-4.7624 IZRAELCI -0.3009
-4.4613 IZRAELOM -0.2757
-4.4613 IZRAELSKA -0.3009
-3.9173 IZRAELSKI -0.2925
-4.4613 IZRAELSKIH -0.3010
-4.7624 IZRAELSKIM -0.3010
-4.7624 IZRAELSKOG -0.3010
-4.7624 IZRAELSKOJ -0.3010
-4.7624 IZRAELSKOM -0.3010
-4.7624 IZRAZILO -0.3010
-4.7624 IZRA`AVAO -0.2947
-4.7624 IZRA`ENE -0.2957
-4.7624 IZRA}UJE -0.2938
-4.7624 IZREKAO -0.3010
-4.7624 IZRU~ENJEM -0.3010
-4.7624 IZRU~I -0.3010
-4.7624 IZUZETO -0.2986
-4.7624 IZVANREDNE -0.3010
-4.7624 IZVANREDNIM -0.3010
-4.7624 IZVANREDNO -0.3008
-4.7624 IZVELA -0.3009
-4.7624 IZVIDA -0.2832
-4.0634 IZVIJESTILA -0.2963
-4.7624 IZVIJESTIO -0.2963
-3.2438 IZVJE{TAJ -0.3001
-4.7624 IZVJE{TAJI -0.3010
-4.2852 IZVJE{^A -0.2830
-3.9173 IZVJE{^E -0.2823
-4.7624 IZVJE{^U -0.3010
-4.4613 IZVJE{^UJE -0.3010
-4.2852 IZVORE -0.2776
-4.7624 IZVORI -0.3010
-4.7624 IZVORIMA -0.2957
-4.7624 IZVR{ILA -0.3010
-4.7624 IZVR{ITI -0.3010
-4.7624 IZVUKU -0.3010
-4.7624 IZVU~EN -0.3009
-4.7624 JA -0.3010
-4.7624 JABLANAC -0.2947
-3.3310 JADRAN -0.2922
-3.0903 JADRANA -0.2552
-4.7624 JADRANKA -0.3010
-4.7624 JADRANKE -0.3010
-4.7624 JADRANKO -0.3010
-3.5071 JADRANOM -0.2736
-4.7624 JADRANSKOJ -0.3010
-2.7093 JADRANU -0.2433
-4.7624 JADROLINIJE -0.2832
-4.7624 JAJI^ -0.2938
-3.9842 JAK -0.2829
-3.6484 JAKA -0.2856
-4.4613 JAKIM -0.3010
-3.8081 JAKO -0.2963
-4.7624 JAKOM -0.3006
-4.2852 JAKOST -0.2956
-4.4613 JAKOSTI -0.2999
-4.7624 JAKU -0.2967
-4.7624 JAMSTAVA -0.2832
-4.7624 JAMSTVO -0.3010
-4.4613 JANEZ -0.3010
-4.7624 JANUKOVI^ -0.2986
-4.4613 JANUKOVI^A -0.2822
-4.7624 JAN{A -0.2832
-4.7624 JAPAN -0.2963
-4.4613 JAPANSKE -0.3010
-4.4613 JAPANU -0.2832
-3.8081 JASENOVAC -0.2700
-4.7624 JASER -0.3010
-4.4613 JASERA -0.3010
-4.7624 JASEROM -0.3010
-4.7624 JASNIJIH -0.3010
-4.7624 JASNU -0.3010
-4.7624 JAVILA -0.3001
-4.1603 JAVLJA -0.3010
-4.1603 JAVLJAJU -0.2993
-4.7624 JAVLJANJA -0.2957
-4.7624 JAVLJAT -0.2997
-4.7624 JAVNIM -0.3010
-4.4613 JAVNOGA -0.3010
-4.7624 JAVNOJ -0.3010
-4.4613 JAVNOST -0.2993
-4.2852 JAVNOSTI -0.2830
-4.1603 JA~A -0.3005
-4.7624 JA~ANJA -0.3010
-4.7624 JA~ANJE -0.3010
-4.2852 JA~ANJU -0.2967
-4.4613 JA~ATI -0.2832
-4.7624 JA~E -0.3010
-4.4613 JA~INE -0.2997
-1.9630 JE -0.2184
-2.7330 JEDAN -0.2419
-3.4836 JEDANAEST -0.2707
-4.7624 JEDANAESTEROKATNICA -0.2832
-4.4613 JEDANAESTOG -0.3010
-4.7624 JEDANAESTOGODI{NJI -0.3010
-4.7624 JEDANPUT -0.3010
-4.7624 JEDINA -0.3010
-4.7624 JEDINICA -0.3009
-4.7624 JEDINICE -0.3010
-4.7624 JEDINSTVENA -0.3010
-4.7624 JEDINSTVENOJ -0.3010
-4.7624 JEDJOT -0.2832
-4.2852 JEDNA -0.3010
-4.7624 JEDNIM -0.3010
-4.7624 JEDNO -0.2963
-4.7624 JEDNODOMNI -0.3010
-3.8593 JEDNOG -0.2997
-4.7624 JEDNOGA -0.3010
-4.2852 JEDNOM -0.3010
-4.7624 JEDNOSTRANOM -0.3010
-4.1603 JEDNU -0.3010
-4.7624 JELA -0.3009
-4.1603 JELI -0.3007
-4.4613 JELI^ -0.2832
-3.3474 JER -0.2842
-4.4613 JERAN -0.3010
-4.7624 JERUZALEMU -0.3010
-4.7624 JEST -0.3010
-4.7624 JEZIKA -0.3009
-4.7624 JEZIKU -0.2957
-4.7624 JOJ -0.2987
-4.2852 JONSKIM -0.3010
-4.7624 JONSKOME -0.3009
-4.7624 JORDAN -0.3010
-4.7624 JORDANU -0.3010
-4.2852 JOSIP -0.3010
-4.7624 JOZE -0.3010
-3.2309 JO{ -0.2643
-4.7624 JO{KA -0.3010
-4.7624 JO{KO -0.3010
-3.7624 JUGA -0.2747
-3.3000 JUGO -0.2551
-4.4613 JUGOISTOK -0.2832
-4.2852 JUGOISTOKU -0.2947
-4.4613 JUGOISTO~NE -0.3010
-4.4613 JUGOISTO~NI -0.2757
-3.8081 JUGOISTO~NOJ -0.3009
-4.7624 JUGOISTO~NU -0.3010
-4.7624 JUGOZAPADA -0.3010
-3.5319 JUGOZAPADNI -0.2782
-3.8593 JUGOZAPADNJAK -0.2690
-4.7624 JUGU -0.3010
-4.7624 JUKI^ -0.3010
-4.7624 JULIJANSKOME -0.3010
-4.7624 JUNAK -0.3009
-3.8593 JUTARNJA -0.3008
-4.7624 JUTARNJE -0.3010
-4.7624 JUTARNJEGA -0.3010
-4.2852 JUTRA -0.2895
-3.7210 JUTROS -0.2673
-4.7624 JUTRO{NJIH -0.3010
-4.7624 JUTRO{NJIM -0.3010
-4.7624 JUTRO{NJU -0.3010
-4.7624 JUVENTUSA -0.2832
-3.8593 JU`NI -0.2946
-4.7624 JU`NIJE -0.2957
-4.2852 JU`NIM -0.2946
-4.4613 JU`NO -0.2998
-4.7624 JU`NOAZIJSKIM -0.3010
-3.6484 JU`NOG -0.2944
-4.0634 JU`NOGA -0.2762
-4.1603 JU`NOJ -0.3009
-3.4199 JU`NOM -0.2753
-4.7624 JU`NU -0.3010
-4.7624 JU{~ENKA -0.2832
-4.2852 JU{~ENKO -0.2938
-3.7624 JU~ER -0.2659
-4.7624 JU~ERA{NJEG -0.3010
-4.7624 JU~ERA{NJU -0.3010
-4.7624 K -0.3010
-4.7624 KABALJEROS -0.2986
-4.7624 KABECEA -0.3009
-4.7624 KACIGE -0.2832
-3.9173 KAD -0.2927
-3.7624 KADA -0.2925
-4.7624 KAFI^IMA -0.2947
-4.7624 KAIDA -0.2832
-2.9363 KAKO -0.2859
-4.7624 KAKVE -0.3010
-4.4613 KAKVU -0.2994
-4.4613 KALENDARU -0.2824
-4.7624 KALINOV~I^ -0.3010
-4.7624 KALORIJA -0.2985
-4.7624 KAMENJA -0.2947
-4.7624 KAMERA -0.2985
-4.7624 KAMIONA -0.3001
-4.4613 KAMO -0.2994
-4.4613 KAMPANJE -0.2831
-4.7624 KAMPANJI -0.2832
-4.4613 KAMPHUES -0.2782
-3.9842 KANALU -0.2827
-4.2852 KANCELAR -0.3010
-4.4613 KANDIDAT -0.3009
-3.8593 KANDIDATA -0.2701
-4.7624 KANDIDATE -0.2832
-4.7624 KANE -0.3010
-3.3310 KAO -0.2876
-4.7624 KAP -0.3008
-4.7624 KAPACITETA -0.3010
-4.1603 KAPELA -0.2921
-4.7624 KAPELAN -0.3010
-4.7624 KAPELE -0.2938
-4.7624 KAPELI -0.2938
-4.7624 KAPELICI -0.3010
-4.7624 KAPRALJEVI^ -0.3010
-4.4613 KAPRIO -0.2985
-4.7624 KARAKASA -0.2832
-4.7624 KARAMARKA -0.2832
-4.7624 KARAMARKO -0.2938
-4.7624 KARIMOVA -0.2832
-4.2852 KARITASA -0.2766
-4.7624 KARI^ -0.2832
-4.7624 KARLA -0.3010
-4.7624 KARLI -0.3010
-4.7624 KARLOBAG -0.3008
-3.7210 KARLOVAC -0.2793
-4.7624 KARLOVA~KE -0.3010
-4.7624 KARLOVA~KOJ -0.3010
-4.7624 KARLOVCA -0.3006
-4.1603 KARLOVCU -0.2934
-4.7624 KAROLINI -0.2832
-4.4613 KARTE -0.3010
-4.4613 KARTU -0.2989
-4.2852 KASNIJE -0.2832
-4.7624 KASNIJEM -0.3010
-4.4613 KATAKLIZME -0.2957
-4.7624 KATAR -0.2963
-4.7624 KATARSKOG -0.3010
-4.7624 KATASTROFA -0.2938
-4.7624 KATASTROFALNE -0.3010
-3.7624 KATASTROFE -0.2776
-4.1603 KATASTROFI -0.2757
-4.7624 KATEDRALE -0.3009
-4.7624 KATEDRALU -0.2832
-4.4613 KATEGORIJI -0.3010
-4.7624 KATOLICI -0.2832
-4.7624 KATOLI~KOG -0.3010
-4.7624 KATSAV -0.3010
-4.7624 KATSAVOM -0.2832
-4.4613 KAZALI{TU -0.3010
-4.7624 KAZNA -0.2989
-4.2852 KAZNE -0.2789
-4.4613 KAZNENA -0.3010
-4.7624 KAZNENI -0.3010
-4.7624 KAZNENIM -0.3010
-4.4613 KAZNENOG -0.3010
-4.7624 KAZNENOGA -0.3010
-4.7624 KAZNENOJ -0.3010
-4.7624 KAZNENU -0.3010
-4.7624 KAZNI -0.3007
-4.7624 KAZNITI -0.2832
-4.4613 KAZNU -0.2832
-4.1603 KA`E -0.2809
-4.7624 KA`NJAVANI -0.2985
-4.7624 KA`NJAVATI -0.2938
-4.4613 KA`NJIVO -0.3010
-4.4613 KA`U -0.2957
-4.7624 KA{I^A -0.3010
-4.4613 KEMIKALIJA -0.2938
-4.4613 KERIJA -0.2832
-4.7624 KETERINGA -0.2832
-4.7624 KIDANJA -0.3010
-4.7624 KILOMETAR -0.2957
-3.2309 KILOMETARA -0.2735
-3.9173 KILOMETRA -0.2828
-4.7624 KIME -0.3010
-4.4613 KINA -0.2961
-4.7624 KINE -0.2947
-4.7624 KINO -0.2832
-4.7624 KINU -0.3010
-3.4401 KI{A -0.2590
-3.7210 KI{E -0.2698
-3.5071 KI{OM -0.2669
-4.2852 KI{U -0.2998
-4.7624 KLAPA -0.3010
-4.7624 KLASIFIKACIJU -0.3008
-4.7624 KLASI~NOJ -0.3010
-4.7624 KLINICI -0.2957
-4.7624 KLINI~KIH -0.3010
-4.7624 KLINI~KIM -0.3010
-4.4613 KLINT -0.3010
-4.4613 KLJU~NA -0.3010
-4.4613 KLOPKU -0.2832
-4.4613 KLOR -0.2832
-4.7624 KLUB -0.3000
-4.2852 KLUBA -0.2938
-4.7624 KLUBOM -0.2832
-4.7624 KNE`EV -0.3010
-4.7624 KNINSKOJ -0.3010
-4.7624 KNINSKU -0.3010
-4.4613 KNJIZI -0.3003
-4.7624 KNJI`NICE -0.2832
-4.2852 KOBE -0.2821
-3.7210 KOD -0.3009
-4.7624 KOGA -0.2987
-3.3310 KOJA -0.2906
-3.1391 KOJE -0.2839
-4.4613 KOJEG -0.3010
-4.4613 KOJEGA -0.2987
-3.9842 KOJEM -0.2928
-3.9842 KOJEMU -0.2933
-2.8539 KOJI -0.2837
-4.1603 KOJIH -0.2994
-4.0634 KOJIM -0.2946
-3.4006 KOJIMA -0.2844
-3.7210 KOJOJ -0.2899
-4.7624 KOJOM -0.2963
-3.9842 KOJU -0.2941
-4.7624 KOKTEL -0.3010
-4.2852 KOLEGA -0.3004
-4.7624 KOLEGE -0.2832
-4.2852 KOLEGOM -0.3010
-4.7624 KOLEKTIVNI -0.3010
-4.7624 KOLEKTIVNIH -0.3010
-4.7624 KOLEKTIVNOG -0.3010
-4.7624 KOLEKTIVNOGA -0.3010
-4.7624 KOLIKE -0.2994
-4.2852 KOLIKO -0.2962
-4.7624 KOLINA -0.3010
-4.4613 KOLI~INA -0.3010
-4.4613 KOLI~INU -0.3010
-4.7624 KOLO -0.2832
-4.4613 KOLONA -0.2963
-4.2852 KOLONAMA -0.2936
-4.7624 KOLONI -0.3009
-4.7624 KOLONIJA -0.2947
-4.7624 KOLOVOZA -0.3010
-4.7624 KOMARICA -0.2832
-4.4613 KOMEDIJE -0.2938
-4.7624 KOMEMORACIJI -0.2994
-4.7624 KOMEMORATIVNOJ -0.3010
-4.7624 KOMENTIRALI -0.2832
-4.2852 KOMENTIRATI -0.2831
-4.7624 KOMISIJA -0.3010
-4.7624 KOMISIJE -0.2947
-4.4613 KOMI~NA -0.3010
-4.2852 KOMORA -0.2776
-4.7624 KOMORE -0.3010
-4.7624 KOMPAS -0.3008
-4.7624 KOMPASA -0.3004
-4.4613 KOMPOZICIJE -0.2830
-4.7624 KOMUNIKACIJE -0.3001
-4.7624 KOMUNISTI~KE -0.3010
-4.4613 KONA~NE -0.3005
-4.7624 KONA~NICI -0.3010
-4.4613 KONCENTRACIJI -0.2938
-4.4613 KONCENTRACIJOM -0.2832
-4.4613 KONCENTRACIJU -0.2947
-4.4613 KONCERT -0.2966
-4.7624 KONCERTA -0.3010
-4.7624 KONCESIJOM -0.2832
-4.7624 KONFERENCIJA -0.2985
-4.1603 KONFERENCIJE -0.2831
-3.8081 KONFERENCIJI -0.2985
-4.7624 KONFERENCIJOM -0.2985
-4.7624 KONG -0.2963
-4.7624 KONGRES -0.2994
-4.7624 KONGRESNIKA -0.2832
-4.1603 KONGU -0.2950
-4.7624 KONJI -0.2832
-4.7624 KONSENZUS -0.3003
-4.4613 KONSTITUIRAJU^E -0.3010
-4.7624 KONSTITUTIVAN -0.3010
-4.7624 KONSTRUTORI -0.3009
-4.7624 KONTAKT -0.3010
-4.7624 KONTAKTE -0.3001
-4.7624 KONTRAVERZNE -0.3010
-4.7624 KONTROLIRAJU -0.3008
-4.7624 KONTROLIRANA -0.2832
-4.7624 KONVOJ -0.3010
-4.7624 KONZALTINGA -0.2938
-4.2852 KONZULATA -0.2884
-4.7624 KONZULTACIJE -0.3007
-4.7624 KOORDINACIJSKI -0.3010
-4.7624 KOORDINATOR -0.3010
-4.1603 KOP -0.3010
-4.7624 KOPNA -0.2832
-4.7624 KOPNENIM -0.3010
-3.9173 KOPNENOM -0.3009
-4.7624 KOPRIVNJAK -0.2832
-4.7624 KORDI^A -0.2832
-4.7624 KOREIJA -0.2832
-4.4613 KORIJERE -0.3010
-4.7624 KORISNIKE -0.3010
-4.4613 KORIST -0.2831
-4.7624 KORISTE^I -0.3009
-4.2852 KORISTI -0.2922
-4.4613 KORISTILE -0.2965
-4.7624 KORISTIO -0.3008
-4.7624 KORISTITI -0.3010
-4.7624 KORI{TENJE -0.3010
-4.7624 KORPAR -0.2832
-4.7624 KOR~ULI -0.3010
-4.0634 KOSOR -0.3008
-4.4613 KOSOVSKOGA -0.3010
-4.1603 KOSOVU -0.2832
-3.8081 KOSTAJNICA -0.2772
-4.2852 KOSTRUTORI -0.2938
-4.7624 KOTAR -0.3006
-3.9173 KOTARU -0.2941
-4.7624 KOTLINAMA -0.2947
-4.7624 KOTOR -0.2963
-4.7624 KOTORA -0.2832
-4.7624 KOTORSKA -0.3010
-4.7624 KOTORSKE -0.3010
-4.7624 KOTORU -0.2832
-4.7624 KO{TALO -0.2832
-4.4613 KO{TUNICE -0.2757
-3.8593 KRAJA -0.3003
-4.7624 KRAJEM -0.3007
-4.1603 KRAJEVIMA -0.2828
-4.7624 KRAJNJEG -0.3010
-4.1603 KRAJU -0.2934
-4.2852 KRALJA -0.2832
-4.7624 KRALJEVSKIM -0.3000
-4.4613 KRANJA -0.2832
-4.7624 KRAPINSKO -0.3010
-4.4613 KRATERA -0.2967
-4.7624 KRATKORO~NU -0.3009
-4.2852 KRATKOTRAJAN -0.3010
-4.7624 KRATKOTRAJNA -0.3009
-4.4613 KRATKOTRAJNE -0.3009
-4.0634 KRATKOTRAJNI -0.3009
-4.7624 KRATKOTRAJNIH -0.3010
-4.7624 KRATKOTRAJNIM -0.3010
-4.7624 KRATKOTRAJNOG -0.3010
-4.4613 KRATKOTRAJNU -0.3010
-4.7624 KRA^A -0.3010
-4.7624 KRA^E -0.3007
-4.7624 KRA^EM -0.3010
-4.7624 KRE^E -0.3006
-4.4613 KRE{IMIR -0.3010
-4.7624 KRIJUM~ARENJE -0.3004
-4.7624 KRIJUM~ARIMA -0.3010
-4.7624 KRILA -0.3000
-4.7624 KRISTALNA -0.3010
-4.7624 KRITIKA -0.3007
-4.4613 KRITIZIRAO -0.3010
-4.7624 KRITI~KI -0.3010
-4.7624 KRIVNJU -0.2994
-4.7624 KRIVOTVORENIMA -0.2832
-4.4613 KRIZA -0.2957
-4.7624 KRIZMANI^ -0.2938
-4.4613 KRI` -0.3010
-4.4613 KRI`A -0.2832
-4.7624 KROACIJU -0.3005
-3.8081 KRONI~NI -0.3009
-4.2852 KRONI~NIH -0.3010
-3.9173 KROZ -0.3010
-4.7624 KRSNIK -0.3008
-4.7624 KRSNIKA -0.2832
-4.7624 KRUG -0.2832
-4.7624 KRUGA -0.3010
-4.4613 KRUGU -0.3010
-4.7624 KRUNO -0.3010
-4.7624 KRVI -0.2985
-4.4613 KRVO`ILNIM -0.3010
-4.7624 KR{E -0.3010
-4.7624 KR{ENJU -0.3010
-4.7624 KR{^ANSKI -0.3010
-4.7624 KUGLA -0.3010
-4.7624 KUKOVA -0.2832
-4.7624 KUKU -0.3007
-4.7624 KULA{ -0.2832
-4.7624 KULTURE -0.2938
-3.7210 KUNA -0.2729
-4.4613 KUNU -0.3010
-3.8081 KUPA -0.2806
-4.4613 KUPI -0.3008
-4.4613 KUPNJI -0.3010
-4.7624 KUPOPRODAJE -0.3010
-4.7624 KURBAM -0.3010
-4.7624 KURBAN -0.3010
-4.7624 KURDA -0.3010
-4.7624 KURDISTAN -0.2832
-4.7624 KURDISTANU -0.2832
-4.7624 KURDSKIH -0.3010
-4.7624 KUVAJTA -0.2938
-4.7624 KUVAJTSKIH -0.3010
-4.4613 KU^ANICE -0.2831
-4.4613 KU^E -0.3005
-4.7624 KU^I -0.2832
-4.4613 KU^ICAMA -0.2957
-4.7624 KU^ICE -0.2938
-4.4613 KU^U -0.2967
-4.7624 KU~ME -0.2938
-4.7624 KVADRI -0.2832
-4.7624 KVARNER -0.2832
-4.7624 KVARNERU -0.2832
-4.7624 LABUSA -0.2832
-4.7624 LAGANU -0.3010
-4.4613 LAGOS -0.3010
-4.7624 LAK{E -0.3009
-4.2852 LANI -0.2771
-4.7624 LANJSKE -0.3010
-4.4613 LANKA -0.2818
-4.7624 LANKI -0.2963
-4.7624 LAPAROSKOPSKO -0.3010
-4.7624 LAPAROSKOPSKU -0.3010
-4.7624 LASERA -0.3008
-4.4613 LASERE -0.2952
-4.7624 LATERALE -0.2832
-4.4613 LAVROV -0.2832
-4.7624 LAZARETI -0.2832
-4.7624 LAZARETIMA -0.2832
-4.7624 LEDENE -0.3009
-4.7624 LEGITIMNU -0.3010
-4.4613 LENAC -0.2832
-4.7624 LENCA -0.3010
-4.4613 LEONARDO -0.3010
-4.7624 LEONIDA -0.3010
-4.4613 LEPENICI -0.2757
-4.7624 LEROJA -0.3010
-4.7624 LET -0.3010
-4.7624 LETJELI -0.3010
-4.7624 LETJELICA -0.2832
-4.2852 LEVANT -0.2825
-3.9173 LI -0.2979
-3.8593 LICI -0.2759
-4.7624 LIGE -0.2938
-4.2852 LIGURSKOG -0.2947
-3.9842 LIJEKOVA -0.2787
-4.7624 LIJEPIH -0.2947
-4.2852 LIJE~ENJA -0.2945
-4.4613 LIJE~ENJE -0.3010
-4.7624 LIJE~ENJU -0.2832
-4.7624 LIJE~ITI -0.3010
-4.7624 LIJE~NICI -0.2957
-4.4613 LIJE~NICIMA -0.2766
-4.7624 LIJE~NIK -0.2963
-3.8593 LIJE~NIKA -0.2766
-4.2852 LIJE~NIKE -0.2850
-4.7624 LIJE~NI~KA -0.3010
-4.7624 LIJE~NI~KI -0.3010
-4.7624 LIJE~NI~KOG -0.3010
-4.7624 LIKOVI -0.3010
-4.7624 LIN -0.2832
-4.7624 LIN#O -0.2832
-4.7624 LINIJA -0.2938
-4.7624 LINIJAMA -0.2832
-4.7624 LINIJE -0.3001
-4.7624 LINIJI -0.2985
-4.7624 LINIJU -0.3001
-4.7624 LIPA -0.2832
-4.7624 LIPNJA -0.2989
-4.7624 LIPNJU -0.2832
-4.7624 LIROJ -0.3010
-4.7624 LISABONU -0.2832
-3.9173 LIST -0.2821
-4.4613 LISTA -0.2938
-4.4613 LISTE -0.2831
-4.7624 LISTI^A -0.3008
-4.7624 LISTOPAD -0.3010
-4.1603 LISTOPADA -0.2826
-4.7624 LISTOPADU -0.3010
-4.4613 LISTOVI -0.3010
-4.7624 LISTU -0.3010
-4.4613 LITARA -0.3010
-4.7624 LI~KOM -0.3010
-4.2852 LJESTVICE -0.2757
-4.7624 LJETNE -0.3010
-4.7624 LJETOVANJE -0.2957
-4.4613 LJE~NI~KA -0.3010
-4.7624 LJE~NI~KE -0.3010
-4.4613 LJUBICA -0.3010
-4.4613 LJUBITELJE -0.3010
-4.7624 LJUBITELJIMA -0.2938
-4.7624 LJUBLJANSKA -0.3010
-4.7624 LJUBLJANSKE -0.3010
-4.7624 LJUBLJANSKO -0.3010
-3.9173 LJUDE -0.2730
-3.1603 LJUDI -0.2621
-4.7624 LJUDIMA -0.2832
-4.4613 LJUDSKA -0.2946
-4.7624 LJUDSKI -0.3010
-4.1603 LJUDSKIH -0.3010
-4.7624 LJUDSKO -0.3010
-4.4613 LJUDSKOG -0.3010
-4.7624 LOGISTI~KU -0.3010
-4.4613 LOGORU -0.3010
-4.7624 LOKACIJE -0.3010
-4.4613 LOKAL -0.3010
-4.7624 LOKALNI -0.3009
-4.7624 LOKALNIM -0.3010
-4.7624 LOKVU -0.2947
-4.7624 LONDON -0.2963
-4.4613 LONDONU -0.2963
-4.7624 LON~ARI^ -0.2832
-4.2852 LOS -0.3010
-4.7624 LOVRO -0.3010
-4.7624 LO{E -0.3010
-4.7624 LO{EGA -0.3010
-4.2852 LUCI -0.2829
-4.7624 LUCI^ -0.2832
-3.9842 LUKA -0.2813
-4.7624 LUKAMA -0.3010
-4.0634 LUKE -0.2986
-4.7624 LUKOM -0.2832
-4.7624 LUNAPARK -0.2957
-4.7624 LU~KE -0.3010
-4.7624 LU~KOG -0.3010
-4.7624 MA -0.3010
-4.4613 MACELJ -0.2937
-3.9173 MAESTRAL -0.2685
-4.7624 MAGISTRALOM -0.3010
-3.6832 MAGLA -0.2638
-4.0634 MAGLE -0.2754
-4.7624 MAGLOVITA -0.2947
-4.7624 MAGLOVITO -0.2832
-4.4613 MAGNEONSOM -0.2832
-4.7624 MAGNITUDA -0.3010
-4.4613 MAHMUD -0.3010
-4.2852 MAHMUDA -0.3010
-4.7624 MAJA -0.3010
-4.7624 MAJKEL -0.3010
-4.4613 MAKARSKE -0.2947
-4.7624 MAKARSKOGA -0.3010
-3.9842 MALA -0.3009
-4.7624 MALI -0.3010
-4.7624 MALIGNOMA -0.2832
-3.1289 MALO -0.2741
-4.7624 MALOG -0.3010
-4.7624 MALOLJETNICIMA -0.2832
-4.7624 MALOLJETNIKA -0.2832
-4.7624 MALOM -0.2989
-4.7624 MALU -0.2989
-4.7624 MALVERZACIJA -0.2832
-4.1603 MANDATA -0.3009
-4.0634 MANJA -0.2818
-4.7624 MANJAK -0.3010
-3.8593 MANJE -0.2997
-4.7624 MANJEM -0.3010
-4.7624 MANJI -0.3010
-4.7624 MANJIH -0.3010
-4.2852 MANJINA -0.2749
-4.7624 MANJINSKA -0.3010
-4.4613 MANJU -0.3010
-4.7624 MAOISTI~KA -0.3010
-4.7624 MAOISTI~KI -0.3010
-4.7624 MARGINI -0.3010
-4.7624 MARIJA~I -0.3010
-4.7624 MARIN -0.3010
-4.7624 MARINA -0.3010
-4.4613 MARINACA -0.2947
-4.7624 MARIO -0.3010
-4.7624 MARK -0.3010
-4.7624 MARKELJEVI^ -0.2832
-4.7624 MARKU -0.3010
-4.7624 MARL -0.2832
-4.7624 MAROKANSKE -0.3010
-4.7624 MARULI^U -0.3010
-4.7624 MAR{ -0.2832
-4.7624 MAR{I^ -0.2832
-4.7624 MASOVNIH -0.3010
-4.4613 MASOVNO -0.3010
-4.7624 MASTER -0.3010
-4.7624 MASTERPLANOVE -0.2938
-4.7624 MATERIJALNA -0.3010
-4.4613 MATERIJALNE -0.3010
-4.7624 MATERIJALNU -0.3010
-4.7624 MATIM -0.2832
-4.7624 MATJEM -0.3010
-4.7624 MA}ARSKI -0.3010
-4.4613 MA~EK -0.2782
-4.7624 MED -0.2947
-4.7624 MEDALJE -0.3010
-4.4613 MEDALJU -0.2832
-4.7624 MEDICINSKA -0.3010
-4.7624 MEDICINSKE -0.3010
-4.7624 MEDICINSKIH -0.3010
-4.7624 MEDICINSKOJ -0.3010
-4.7624 MEDIJE -0.2832
-4.0634 MEDIJI -0.2731
-4.7624 MEDIJSKE -0.3010
-4.4613 MEDVJED -0.2967
-4.7624 MEKE -0.2957
-4.7624 MEKU -0.2832
-4.1603 MEK{EJN -0.2776
-4.7624 MERKALIJEVE -0.3010
-4.7624 MESA -0.2947
-3.6832 MESI^ -0.2733
-4.1603 MESI^A -0.2871
-4.2852 MESI^EM -0.2766
-4.7624 MESI^EVU -0.3010
-4.1603 MESI^U -0.2967
-3.8081 METARA -0.2831
-4.4613 METE -0.3010
-3.4836 METEOROLO{KOG -0.3008
-3.9173 METEOROLO{KOGA -0.3008
-4.4613 METEOROPATI -0.2807
-3.8081 METKOVI^ -0.2796
-4.4613 METODE -0.2757
-4.7624 METROPOLI -0.3008
-4.7624 ME{IHATE -0.3010
-4.7624 ME}IMURSKOM -0.2938
-3.6832 ME}U -0.3001
-4.7624 ME}UGENERACIJSKE -0.3010
-4.0634 ME}UNARODNE -0.3009
-4.7624 ME}UNARODNIH -0.3010
-4.7624 ME}UNARODNIM -0.3010
-4.7624 ME}UNARODNOG -0.3010
-4.7624 ME}UNARODNOGA -0.3007
-4.4613 ME}UNARODNOJ -0.3010
-4.4613 ME}UNARODNOM -0.3010
-4.4613 ME}UNARODNU -0.3009
-4.7624 ME}USOBNI -0.3010
-4.7624 ME}USOBNIH -0.3010
-4.7624 ME}USOBNO -0.3010
-4.4613 ME}UTIM -0.3010
-4.0634 ME}UVREMENU -0.2899
-4.7624 MICANJE -0.3010
-4.7624 MIHAJLOVI^A -0.2832
-3.8081 MIHOLJAC -0.2782
-4.4613 MIJENJA -0.2987
-4.4613 MIJE{ANJE -0.3010
-4.7624 MIKE -0.3010
-4.4613 MIKO -0.3010
-4.7624 MIKULI^ -0.3004
-4.7624 MIKULI^A -0.2997
-4.7624 MILENA -0.3010
-4.7624 MILI -0.3010
-4.7624 MILIJARDE -0.2947
-4.7624 MILIJARDI -0.3010
-4.7624 MILIJARDU -0.2947
-4.4613 MILIJUN -0.2947
-3.2710 MILIJUNA -0.2940
-4.7624 MILIJUNIMA -0.3010
-4.2852 MILITANATA -0.2787
-4.7624 MILITANTNIH -0.3010
-4.1603 MILJN -0.3010
-4.7624 MIMOHODA -0.2832
-4.7624 MINA -0.2832
-4.7624 MINI -0.3010
-4.7624 MINIGO -0.2832
-4.7624 MINIMUM -0.2832
-4.7624 MINIRANIH -0.2947
-3.5863 MINISTAR -0.2780
-3.9173 MINISTARSTVA -0.3008
-4.7624 MINISTARSTVO -0.3010
-4.4613 MINISTARSTVU -0.3000
-4.0634 MINISTRA -0.3009
-4.4613 MINISTRI -0.2831
-4.7624 MINISTRICA -0.3010
-4.7624 MINISTRICE -0.3010
-4.7624 MINSKI -0.3010
-4.7624 MINSKIH -0.2832
-4.4613 MINSTERU -0.2831
-2.7453 MINUS -0.2708
-3.7624 MINUTA -0.2829
-4.1603 MINUTE -0.2831
-4.7624 MINUTOM -0.3010
-4.7624 MINUTU -0.3010
-4.7624 MIOMIR -0.3010
-4.7624 MIOMIRA -0.3010
-4.7624 MIOMIROM -0.3010
-4.4613 MIR -0.2828
-4.2852 MIRA -0.2874
-4.7624 MIRENJA -0.3001
-4.7624 MIRJANA -0.3010
-4.7624 MIRJANE -0.3010
-4.2852 MIRNO -0.3001
-4.7624 MIRNOGA -0.3010
-4.7624 MIROLJUBA -0.3010
-4.7624 MIROSLAVOM -0.3010
-4.4613 MIROVNE -0.3010
-4.2852 MIROVNIH -0.3009
-4.4613 MIROVNIM -0.3010
-4.7624 MIROVNU -0.3010
-4.7624 MIRU -0.2938
-4.7624 MISE -0.3010
-4.7624 MISI -0.2832
-4.7624 MISIJA -0.2832
-4.7624 MISIJE -0.2832
-4.4613 MISIJU -0.2776
-4.7624 MISLIMA -0.3000
-4.7624 MISU -0.3010
-4.4613 MI{LJENJA -0.2938
-4.0634 MI{LJENJE -0.2891
-4.7624 MI{LJENJU -0.3010
-4.4613 MJERA -0.2985
-4.2852 MJERE -0.2878
-3.9173 MJESEC -0.2828
-3.6162 MJESECA -0.2673
-3.9173 MJESECI -0.2741
-4.7624 MJESE~NA -0.3010
-4.7624 MJESE~NE -0.3010
-4.2852 MJESTA -0.2776
-4.1603 MJESTIMA -0.2773
-2.9989 MJESTIMICE -0.2623
-4.2852 MJESTIMI~NOM -0.3009
-4.4613 MJESTIMI~NU -0.3010
-3.9842 MJESTO -0.2831
-3.9173 MJESTU -0.2931
-4.7624 MJE{TANIMA -0.3010
-4.4613 MJUZIKLA -0.3006
-4.7624 MLADE` -0.2832
-4.7624 MLADE{KU -0.3010
-4.1603 MLADI -0.2953
-4.2852 MLADIH -0.3000
-4.2852 MLADI^ -0.2776
-4.4613 MLADI^A -0.2832
-4.4613 MLA}E -0.2998
-4.7624 MLIJEKA -0.2938
-4.7624 MNOGE -0.3010
-4.1603 MNOGI -0.2989
-4.7624 MNOGIM -0.3010
-4.4613 MNOGO -0.3009
-4.7624 MNOGOBROJNE -0.3010
-4.7624 MNO{TVO -0.3010
-4.7624 MOBILNIH -0.3010
-4.7624 MODEL -0.2957
-4.7624 MODERNA -0.3008
-4.7624 MODERNE -0.3008
-4.7624 MODERNIZACIJI -0.2947
-3.9842 MOGAO -0.3009
-4.0634 MOGLA -0.3002
-4.1603 MOGLE -0.3007
-3.6832 MOGLI -0.2930
-4.2852 MOGLO -0.3010
-3.6832 MOGU -0.2984
-4.0634 MOGU^ -0.3006
-3.7624 MOGU^A -0.2896
-3.8593 MOGU^E -0.2865
-4.7624 MOGU^EG -0.3010
-4.1603 MOGU^I -0.3010
-3.8081 MOGU^NOST -0.2803
-4.4613 MOGU^NOSTI -0.2832
-4.7624 MOGU^OJ -0.3010
-4.7624 MOJ -0.3010
-4.7624 MOJA -0.3010
-4.7624 MOJE -0.3009
-4.7624 MOJSIJU -0.2832
-4.7624 MOKORI^ -0.2832
-4.4613 MOLE^I -0.2987
-4.7624 MOLI -0.2985
-4.7624 MOLITI -0.2985
-4.7624 MOLITVAMA -0.2947
-4.1603 MOLITVU -0.2932
-4.7624 MONARHIJE -0.2947
-4.4613 MONTGOMERI -0.2832
-4.7624 MONTGOMERIJA -0.2832
-4.7624 MONTGOMERIJEVE -0.3010
-4.7624 MONTGOMERIJU -0.3010
-3.8593 MORA -0.2685
-4.1603 MORAJU -0.3009
-4.1603 MORATI -0.2957
-3.0065 MORE -0.2907
-4.2852 MOREM -0.3010
-4.4613 MORNARICA -0.2947
-3.4199 MORU -0.2813
-4.7624 MOSKOVSKOGA -0.3010
-4.7624 MOSLAVA~KOM -0.3010
-4.7624 MOSTARU -0.2938
-4.7624 MOSULA -0.2832
-4.7624 MOTORKOTA~IMA -0.2967
-4.1603 MO^I -0.2997
-4.4613 MO`DA -0.2962
-3.7624 MO`E -0.3006
-4.7624 MO{E -0.3010
-4.7624 MO{OM -0.3000
-4.7624 MRAZA -0.2938
-4.7624 MRTVA~NICE -0.2957
-4.7624 MRTVIH -0.2957
-4.4613 MRZLJAK -0.2766
-3.8593 MU -0.2962
-4.7624 MU#AHEDINIMA -0.2832
-4.7624 MUFTI -0.2832
-4.7624 MUHAMED -0.3010
-4.7624 MUKA -0.3010
-4.7624 MUSLIMANA -0.3006
-4.7624 MUSLIMANI -0.2832
-4.4613 MUSLIMANSKA -0.3010
-4.4613 MUSLIMANSKE -0.3009
-4.4613 MUSLIMANSKIM -0.3010
-4.7624 MUSLIMANSKOHRVATSKI -0.3010
-4.7624 MUSTAFA -0.3010
-4.7624 MUZEJU -0.3010
-4.7624 MU{KARCA -0.3010
-4.7624 MU~ENIKA -0.2832
-4.7624 MU~NIH -0.3010
-2.0080 NA -0.2814
-4.7624 NACIONALISTIMA -0.2832
-4.4613 NACIONALNE -0.3010
-4.4613 NACIONALNIH -0.3010
-4.7624 NACIONALNOG -0.3010
-4.7624 NACIONALNOJ -0.3000
-4.4613 NACIONALNOM -0.3010
-4.7624 NACIONALNU -0.3010
-4.7624 NACRT -0.3010
-4.7624 NACRTU -0.3010
-3.3644 NAD -0.3008
-4.7624 NADA -0.2994
-4.7624 NADBISKUP -0.3010
-4.7624 NADLE`NA -0.3010
-4.7624 NADLE`NOSTI -0.3010
-4.7624 NADZEMNA -0.3010
-4.7624 NADZIRE -0.3009
-4.4613 NADZIRU -0.2832
-4.4613 NADZOR -0.2830
-4.7624 NADZOROM -0.2832
-4.7624 NAGA}ANJA -0.3003
-4.7624 NAGLAVA~KE -0.2832
-4.4613 NAGRA}ENA -0.2963
-3.7210 NAIME -0.2970
-4.7624 NAIZMJENCE -0.3010
-4.2852 NAJAVILA -0.2994
-4.7624 NAJAVILE -0.2994
-4.2852 NAJAVILI -0.2826
-4.4613 NAJAVIO -0.2946
-4.7624 NAJAVLJEN -0.2985
-4.7624 NAJAVLJUJU -0.2947
-4.7624 NAJBLI`E -0.3010
-4.4613 NAJBLI`IH -0.2757
-4.1603 NAJBOLJA -0.3010
-4.7624 NAJBOLJE -0.3010
-4.4613 NAJBOLJEG -0.3010
-4.4613 NAJBOLJI -0.3010
-4.7624 NAJBOLJIH -0.3010
-4.4613 NAJBOLJU -0.3010
-4.7624 NAJGORE -0.2832
-4.7624 NAJISTO~NIJIM -0.3010
-4.2852 NAJKASNIJE -0.2932
-4.0634 NAJMANJE -0.2993
-4.7624 NAJMLA}E -0.2938
-4.0634 NAJNI`A -0.3007
-4.7624 NAJNOVIJE -0.3010
-4.7624 NAJNOVIJEM -0.3010
-4.4613 NAJNOVIJI -0.3010
-4.7624 NAJNOVIJU -0.3010
-4.7624 NAJOSJETLJIVIJI -0.3009
-4.7624 NAJPOZNATIJOJ -0.3010
-4.7624 NAJPRIJE -0.2967
-4.4613 NAJRAZVIJENIJIH -0.3009
-4.7624 NAJTE`E -0.3010
-4.7624 NAJVA`NIJA -0.3010
-4.7624 NAJVA`NIJE -0.2963
-4.4613 NAJVE^A -0.3010
-4.1603 NAJVE^E -0.3010
-4.2852 NAJVE^EG -0.3010
-4.1603 NAJVE^I -0.3010
-4.7624 NAJVE^IM -0.3010
-3.5582 NAJVI{A -0.2935
-4.2852 NAJVI{E -0.2967
-4.7624 NAJVI{OM -0.3010
-4.1603 NAJVJEROJATNIJE -0.2981
-4.7624 NAJVJEROVATNIJE -0.2963
-4.7624 NAKNADE -0.2832
-4.4613 NAKNADNO -0.3010
-4.7624 NAKNADU -0.2985
-2.9989 NAKON -0.2788
-4.7624 NAKRATKO -0.2987
-4.7624 NAKRCAN -0.3001
-4.7624 NALAZE -0.3010
-4.7624 NALETU -0.3010
-4.7624 NALO`IO -0.2963
-4.7624 NAM -0.3010
-4.7624 NAMET -0.2938
-4.7624 NAMIJENJENA -0.3010
-4.7624 NAMJENJEN -0.2985
-4.4613 NAMJERAVA -0.3010
-4.7624 NAMJERI -0.2994
-4.7624 NAMJE{TENIKA -0.2832
-3.8081 NAOBLAKA -0.2731
-4.2852 NAOBLAKE -0.2757
-3.9173 NAOBLAKOM -0.2807
-4.0634 NAOBLAKU -0.2924
-4.4613 NAOBLA~ENJE -0.2938
-4.2852 NAPAD -0.2967
-3.9842 NAPADA -0.2787
-4.2852 NAPADE -0.3010
-4.2852 NAPADIMA -0.2957
-4.7624 NAPADNUT -0.2963
-4.7624 NAPADNUTA -0.2957
-4.7624 NAPADU -0.2967
-4.7624 NAPETOSTI -0.3008
-4.7624 NAPISANO -0.3010
-4.7624 NAPISAO -0.2994
-4.7624 NAPISATI -0.3010
-4.7624 NAPISE -0.2957
-4.7624 NAPLATITI -0.3005
-4.7624 NAPLATNE -0.3010
-4.4613 NAPLATNIM -0.3010
-4.7624 NAPLATNOM -0.3010
-4.7624 NAPLATNOME -0.3010
-4.7624 NAPLATU -0.3006
-4.4613 NAPOMENUO -0.2963
-4.7624 NAPORA -0.2832
-4.7624 NAPRAVA -0.2832
-4.7624 NAPRAVITI -0.3010
-4.4613 NAPREDAK -0.2951
-4.4613 NAPULJU -0.2832
-4.7624 NAPUSTI -0.3010
-4.7624 NARASLE -0.2832
-4.7624 NARA{TAJA -0.3010
-4.7624 NARA{TAJI -0.3010
-4.1603 NAREDIO -0.2962
-4.7624 NAROD -0.3010
-4.1603 NARODA -0.2692
-4.7624 NARODI -0.3010
-4.2852 NARODNE -0.3010
-4.4613 NARODNOG -0.3010
-4.7624 NARODNOM -0.3010
-4.7624 NAS -0.2967
-4.0634 NASELJA -0.2907
-4.7624 NASELJE -0.3010
-4.7624 NASELJIMA -0.2967
-4.2852 NASILJA -0.2952
-4.1603 NASILJE -0.2955
-4.7624 NASILJU -0.3008
-4.7624 NASLJEDNIK -0.3010
-4.7624 NASLJEDNIKA -0.3010
-4.7624 NASLJEDNU -0.3010
-4.7624 NASLOVOM -0.3010
-4.7624 NASTALI -0.3006
-4.4613 NASTANAK -0.3010
-4.7624 NASTAVI -0.3007
-4.4613 NASTAVITI -0.2831
-4.0634 NASTAVKU -0.3002
-4.1603 NASTAVLJA -0.2821
-4.7624 NASTAVLJAMO -0.3010
-4.4613 NASTOJANJA -0.2969
-4.7624 NASTUPA -0.3010
-4.7624 NASTUPILI -0.3010
-4.7624 NASTUPITI -0.2967
-4.7624 NASTUPOM -0.3010
-4.7624 NASTUPU -0.3010
-4.4613 NATJECANJE -0.2832
-4.7624 NATJECANJU -0.2832
-4.7624 NATJE~AJIMA -0.2832
-4.2852 NATO -0.3010
-4.7624 NATOU -0.2832
-4.7624 NATOVU -0.3010
-4.4613 NATRAG -0.2921
-4.7624 NAVAROVALS -0.2938
-4.7624 NAVELA -0.2963
-4.7624 NAVESTI -0.3010
-4.0634 NAVE~ER -0.2815
-4.7624 NAVIKNULI -0.3010
-4.4613 NAVODE^I -0.3010
-4.2852 NAVODI -0.2955
-4.4613 NAVODNIM -0.3010
-4.1603 NAVODNO -0.2782
-4.7624 NAVODNOM -0.3010
-4.7624 NAZIVAJU -0.3010
-4.7624 NAZNAKA -0.2832
-4.7624 NAZO~AN -0.3010
-4.7624 NAZO~NE -0.2832
-4.7624 NAZO~NI -0.2967
-4.2852 NAZO~NOSTI -0.3008
-4.7624 NAZVAO -0.2938
-4.7624 NAZVAV{I -0.3010
-4.7624 NA^I -0.3010
-4.7624 NA{ -0.3010
-4.7624 NA{A -0.3010
-4.1603 NA{E -0.3009
-4.7624 NA{EGA -0.3010
-4.2852 NA{I -0.3010
-4.7624 NA{IH -0.3010
-4.7624 NA{IM -0.3010
-4.1603 NA{OJ -0.2987
-4.7624 NA{TETIO -0.3010
-4.7624 NA}ENA -0.3010
-4.7624 NA}ENO -0.2832
-4.7624 NA~ELA -0.2994
-4.7624 NA~ELNIK -0.3010
-4.1603 NA~IN -0.2766
-4.7624 NA~INA -0.3010
-4.7624 NA~INU -0.3010
-3.0300 NE -0.2990
-4.7624 NE#AD -0.3010
-4.7624 NEBOJ{E -0.3010
-4.4613 NEDALEKO -0.2998
-4.7624 NEDAVNO -0.3010
-4.7624 NEDAVNOG -0.3010
-4.0634 NEDJELJU -0.2945
-4.7624 NEDJELOTVORNO -0.2947
-4.7624 NEGDJE -0.3009
-3.6832 NEGO -0.2859
-4.7624 NEIZRU~IVANJE -0.3010
-4.7624 NEIZRU~IVANJEM -0.3010
-4.7624 NEKA -0.3010
-4.7624 NEKADA{NJE -0.3010
-4.7624 NEKADA{NJEG -0.3010
-4.7624 NEKADA{NJI -0.3010
-4.7624 NEKAKAV -0.3010
-4.7624 NEKA`NJAVANJE -0.3010
-4.4613 NEKE -0.2998
-4.0634 NEKI -0.2993
-4.0634 NEKIM -0.2987
-4.7624 NEKOLICINOM -0.3010
-3.5071 NEKOLIKO -0.2997
-4.7624 NEKORISNO -0.2832
-4.7624 NEKORISTAN -0.2832
-3.7210 NEMA -0.2754
-4.7624 NEMAJU -0.3009
-4.7624 NEMORALAN -0.3010
-4.7624 NEOPOZIVU -0.3010
-4.7624 NEOPRAVDANO -0.3010
-4.7624 NEOSNOVANI -0.3010
-4.4613 NEOUBI~AJENO -0.3010
-4.7624 NEOVISNO -0.3010
-4.7624 NEOVISNOST -0.2832
-4.7624 NEOVISNOSTI -0.2832
-4.7624 NEO~EKIVANOM -0.3010
-4.7624 NEPALA -0.3010
-4.7624 NEPALSKE -0.3010
-4.7624 NEPALU -0.3010
-4.7624 NEPAR -0.2832
-4.7624 NEPEDAGO{KE -0.3010
-4.4613 NEPOSREDNOJ -0.3010
-4.7624 NEPOVJERENJA -0.2957
-4.4613 NEPOVOLJNE -0.2921
-4.2852 NEPOVOLJNI -0.2746
-4.7624 NEPOVOLJNIH -0.3010
-4.4613 NEPOZNATA -0.3010
-4.7624 NEPRAVEDAN -0.3010
-4.7624 NEPRAVILNOSTI -0.2957
-4.7624 NEPRAVILNOSTIMA -0.2957
-4.7624 NEPREKIDNO -0.3000
-4.7624 NEPRESTANCE -0.3010
-4.7624 NEPRILAGO}ENE -0.3010
-4.7624 NEPRIMJERENO -0.3010
-4.4613 NEPRIPITOMLJENE -0.3010
-4.7624 NERASKIDIVE -0.3010
-4.7624 NERAVNOPRAVAN -0.3010
-3.8081 NERETVA -0.3010
-4.4613 NERETVANSKA -0.3010
-4.7624 NERETVANSKOJ -0.3010
-4.7624 NESANICOM -0.2832
-4.4613 NESLU`BENO -0.3010
-3.9173 NESRE^E -0.2663
-4.4613 NESRE^I -0.2961
-4.7624 NESRE^OM -0.2832
-4.7624 NESTABILNA -0.3010
-4.7624 NESTABILNI -0.3010
-4.4613 NESTALE -0.2832
-4.7624 NESTALIH -0.3010
-4.4613 NESTALIMA -0.2884
-4.4613 NESTALO -0.2955
-4.7624 NESTALU -0.3010
-4.7624 NESTAO -0.2993
-4.7624 NESTA{ICE -0.3010
-4.7624 NESURADNJE -0.3001
-4.7624 NETKO -0.3010
-4.4613 NEUGODNOSTI -0.3010
-4.4613 NEUPITNA -0.2832
-4.7624 NEUSPJELA -0.3010
-4.7624 NEU~INKOVITA -0.3008
-4.7624 NEVALJANIMA -0.3010
-4.7624 NEVERIN -0.2938
-4.2852 NEVERINI -0.2807
-4.7624 NEVLADINE -0.3010
-4.7624 NEVOLJI -0.2832
-4.1603 NEZADOVOLJNI -0.2814
-4.7624 NEZADOVOLJSTVO -0.3010
-4.7624 NEZAKONITIM -0.3010
-4.4613 NEZAKONITOM -0.3010
-4.7624 NEZAVISNI -0.3010
-4.7624 NEZAVISNOG -0.3010
-4.7624 NEZAVISNOGA -0.3010
-3.7624 NE^E -0.2923
-4.0634 NE{TO -0.3009
-4.7624 NE~ASNOJ -0.3010
-3.5582 NI -0.2950
-4.7624 NIGERIJI -0.3010
-3.3310 NIJE -0.2954
-4.7624 NIKAKAV -0.3010
-4.7624 NIKAKO -0.3006
-4.7624 NIKAKVE -0.3010
-4.7624 NIKAKVIH -0.3010
-4.7624 NIKAKVIM -0.3010
-4.7624 NIKOBARU -0.2938
-4.2852 NIKOLA -0.3000
-4.4613 NINIJA -0.2832
-4.4613 NIP -0.3010
-4.4613 NISKA -0.3010
-4.7624 NISKIM -0.3010
-3.4401 NISU -0.3007
-3.9842 NITI -0.3002
-4.7624 NIZ -0.3010
-4.7624 NIZOZEMSKA -0.2963
-4.4613 NIZOZEMSKE -0.2815
-4.7624 NIZOZEMSKIM -0.3000
-4.4613 NIZOZEMSKOJ -0.2832
-4.7624 NIZU -0.3010
-4.4613 NJE -0.3010
-4.7624 NJEGA -0.2963
-3.9173 NJEGOV -0.3008
-3.7624 NJEGOVA -0.2992
-4.2852 NJEGOVE -0.3009
-4.4613 NJEGOVI -0.3010
-4.2852 NJEGOVIM -0.3010
-4.4613 NJEGOVO -0.2963
-4.7624 NJEGOVOM -0.3010
-4.4613 NJEGOVU -0.3010
-4.4613 NJEMA~KA -0.2884
-4.2852 NJEMA~KI -0.3010
-4.7624 NJEMA~KIH -0.3010
-4.7624 NJEMA~KIM -0.3010
-4.7624 NJEMA~KOME -0.3010
-4.7624 NJEMCE -0.2832
-4.7624 NJEMICOM -0.3010
-4.2852 NJEMU -0.2962
-4.4613 NJEZIN -0.3010
-4.7624 NJEZINI -0.2997
-4.7624 NJEZINIH -0.3010
-4.4613 NJEZINO -0.3010
-4.7624 NJEZINOJ -0.3010
-4.0634 NJIH -0.2815
-4.2852 NJIHOV -0.3010
-4.2852 NJIHOVA -0.3010
-4.4613 NJIHOVI -0.3010
-4.1603 NJIHOVIH -0.3010
-4.7624 NJIHOVIM -0.3010
-4.4613 NJIHOVO -0.3010
-4.4613 NJIHOVU -0.3010
-4.7624 NJIMA -0.3010
-4.7624 NJOJ -0.2963
-4.7624 NJU -0.2963
-4.7624 NJUJORKU -0.2832
-3.4836 NO -0.2868
-4.7624 NOBILA -0.3004
-4.7624 NOBILO -0.2963
-4.7624 NOGOMETA{A -0.3010
-4.7624 NORDIJSKIH -0.3010
-4.7624 NORMALNIM -0.3010
-4.2852 NORVE{KA -0.2947
-4.4613 NORVE{KIM -0.3010
-4.7624 NOSA~ -0.3010
-4.7624 NOSILE -0.3010
-3.8593 NOVA -0.2780
-4.7624 NOVAC -0.2997
-4.2852 NOVCA -0.3009
-4.4613 NOVCU -0.2944
-3.6484 NOVE -0.3002
-4.0634 NOVI -0.2961
-4.2852 NOVIH -0.3009
-4.1603 NOVIM -0.3010
-4.4613 NOVINAR -0.3010
-4.2852 NOVINARA -0.2766
-4.7624 NOVINARE -0.3010
-4.4613 NOVINARIMA -0.2921
-4.7624 NOVINARKE -0.3010
-4.7624 NOVINARSTVU -0.2832
-4.7624 NOVINSKA -0.3010
-4.7624 NOVINSKI -0.3010
-3.7624 NOVINSTVO -0.2749
-4.7624 NOVO -0.3010
-3.9842 NOVOG -0.2829
-4.2852 NOVOGA -0.3008
-4.7624 NOVOGODI{NJA -0.3010
-4.2852 NOVOGODI{NJE -0.3010
-4.7624 NOVOGODI{NJEG -0.3010
-4.7624 NOVOGODI{NJOJ -0.3008
-4.4613 NOVOJ -0.3010
-4.7624 NOVOM -0.3010
-4.7624 NOVOOSNOVANO -0.3010
-4.7624 NOVOST -0.2963
-4.7624 NOVOSTI -0.2832
-3.6832 NOVU -0.2959
-4.7624 NOV~ANU -0.3010
-4.7624 NO^ -0.2947
-4.2852 NO^AS -0.2953
-4.7624 NO^A{NJEM -0.3010
-3.3644 NO^I -0.2689
-3.7624 NO^U -0.2934
-4.4613 NO{EN -0.3010
-3.1942 NULA -0.2647
-4.7624 NULTA -0.3010
-4.7624 NU`AN -0.2832
-2.7624 O -0.2739
-4.7624 OBA -0.3010
-4.7624 OBALAMA -0.2938
-3.8081 OBALE -0.2814
-4.2852 OBALI -0.2757
-4.7624 OBALNA -0.3010
-4.7624 OBALNOM -0.3009
-3.3474 OBALU -0.2987
-4.4613 OBASJAO -0.3010
-4.7624 OBAVEZE -0.2832
-4.7624 OBAVIJESTI -0.2987
-4.7624 OBAVIJESTIO -0.3003
-4.7624 OBAVIT -0.2997
-4.7624 OBAVJESNI -0.3010
-4.4613 OBAVJE{TAJNE -0.3010
-4.7624 OBAVLJANJU -0.3009
-4.4613 OBAVLJENI -0.2994
-4.4613 OBE^ALA -0.2946
-4.7624 OBE^ANA -0.2994
-4.4613 OBE^AO -0.2946
-4.7624 OBILJE`AVAJU -0.3010
-4.7624 OBILJE`ENA -0.3010
-4.7624 OBILJE`IO -0.3005
-4.4613 OBITELJ -0.3010
-4.1603 OBITELJI -0.2831
-4.7624 OBITELJSKOG -0.3010
-4.7624 OBI{AO -0.3010
-4.2852 OBJASNIO -0.2782
-4.0634 OBJAVILA -0.2963
-4.7624 OBJAVILE -0.2994
-4.7624 OBJAVILI -0.2994
-4.7624 OBJAVILO -0.2832
-3.7624 OBJAVIO -0.2946
-4.4613 OBJAVITI -0.3003
-4.7624 OBJAVLJEN -0.2963
-4.7624 OBJAVLJENA -0.3010
-4.4613 OBJAVLJENO -0.2957
-4.7624 OBJAVLJENOJ -0.3010
-4.4613 OBJAVLJENOM -0.2957
-4.7624 OBJAVLJIVALI -0.3010
-4.7624 OBJAVLJIVANJE -0.3010
-4.7624 OBJAVLJIVANJEM -0.3010
-4.7624 OBJA{NJENJA -0.2967
-4.4613 OBJE -0.3010
-4.7624 OBJEKTIVNI -0.3010
-4.7624 OBLACI -0.3010
-4.1603 OBLAKA -0.2953
-4.4613 OBLA~NIJE -0.2967
-3.1289 OBLA~NO -0.2573
-4.7624 OBLETI -0.3010
-4.7624 OBLIK -0.3010
-4.7624 OBLIKU -0.3010
-4.7624 OBLJETNICA -0.3009
-4.4613 OBLJETNICE -0.3008
-4.4613 OBMANJIVAO -0.3000
-4.7624 OBNA{A -0.3010
-4.4613 OBNOVI -0.3009
-4.7624 OBNOVU -0.3010
-4.1603 OBRANE -0.2832
-4.7624 OBRATITI -0.2987
-4.7624 OBRAZOVANIH -0.3007
-4.7624 OBRAZOVANJE -0.3010
-4.7624 OBRA}ENIM -0.3008
-4.7624 OBRED -0.2957
-4.7624 OBUHVA^A -0.3003
-4.7624 OBUHVA^AO -0.2963
-4.7624 OBUHVA^ENIH -0.2957
-4.7624 OBUHVA^ENO -0.3006
-4.7624 OBU~ENI -0.2832
-4.4613 OBVEZA -0.2938
-4.7624 OBVEZUJU^A -0.2957
-4.7624 OBZIRA -0.2967
-4.2852 OCEANU -0.2832
-4.7624 OCIJENILO -0.2994
-4.1603 OCIJENIO -0.2938
-4.7624 OCJENJENO -0.2963
-4.2852 OCJENJUJU -0.2807
-2.5423 OD -0.2701
-4.0634 ODALI -0.2994
-4.7624 ODANE -0.2994
-4.7624 ODASLANOM -0.3010
-4.7624 ODAZVALI -0.2967
-4.7624 ODBACILI -0.2986
-4.7624 ODBIJU -0.3010
-4.7624 ODBILI -0.2994
-4.7624 ODBILO -0.3010
-4.4613 ODBIO -0.2963
-4.7624 ODBOR -0.3010
-4.4613 ODBORA -0.2983
-4.7624 ODGAJATELJ -0.3010
-4.7624 ODGODI -0.3010
-4.4613 ODGODIO -0.2962
-4.4613 ODGOVARAJU^I -0.2967
-4.7624 ODGOVARATI -0.2967
-4.4613 ODGOVOR -0.2787
-4.7624 ODGOVORAN -0.2832
-4.7624 ODGOVORILO -0.2832
-4.7624 ODGOVORIO -0.2994
-4.7624 ODGOVORNA -0.2985
-4.7624 ODGOVORNI -0.3010
-4.4613 ODGOVORNOSTI -0.2832
-4.4613 ODGO}ENA -0.2963
-4.7624 ODLAGALI{TE -0.3010
-4.7624 ODLAGALI{TEM -0.3010
-4.7624 ODLAGALI{TU -0.3010
-4.4613 ODLAGANJU -0.2938
-4.7624 ODLAZITI -0.3010
-4.7624 ODLA`E -0.2967
-4.1603 ODLUKA -0.2955
-4.7624 ODLUKAMA -0.2986
-4.2852 ODLUKE -0.2824
-4.2852 ODLUKU -0.2917
-4.2852 ODLU~ILE -0.2994
-4.7624 ODLU~IO -0.3010
-4.7624 ODLU~ITI -0.3003
-4.7624 ODLU~IVAT -0.2997
-4.7624 ODLU~IVATI -0.3003
-4.7624 ODLU~NO -0.3010
-4.2852 ODMAH -0.3006
-4.7624 ODNOS -0.3008
-4.2852 ODNOSA -0.3000
-4.7624 ODNOSE -0.3007
-4.7624 ODNOSI -0.2938
-4.4613 ODNOSIMA -0.2831
-4.4613 ODNOSITI -0.2967
-4.7624 ODNOSNO -0.3010
-4.7624 ODNOSU -0.3006
-4.7624 ODOBRAVAJU -0.3010
-4.7624 ODOBRENO -0.3010
-4.7624 ODOBRILA -0.3010
-4.7624 ODREDE -0.3010
-4.7624 ODREDIO -0.3010
-4.4613 ODREDITI -0.2832
-4.7624 ODREDI{TA -0.2832
-4.4613 ODREKLI -0.3010
-4.7624 ODRE}EN -0.3010
-4.7624 ODRE}ENE -0.2994
-4.7624 ODRE}ENIH -0.3010
-4.7624 ODRE}ENJE -0.3006
-4.7624 ODRE}UJE -0.2987
-4.4613 ODR`ALE -0.2831
-4.2852 ODR`ANA -0.2782
-4.7624 ODR`ANOG -0.3003
-4.7624 ODR`ANOJ -0.2957
-4.7624 ODR`AO -0.2957
-4.7624 ODR`AT -0.2997
-4.2852 ODR`ATI -0.2957
-4.7624 ODR`AVANJA -0.2947
-4.4613 ODR`AVANJE -0.3010
-4.7624 ODUSTATI -0.3010
-4.7624 ODUZETI -0.3010
-4.7624 ODUZIMANJEM -0.3010
-4.7624 ODVJETNI{TVA -0.3005
-4.7624 ODVJETNI{TVO -0.2957
-4.7624 ODVJETNI{TVOM -0.2832
-4.7624 ODVOJENA -0.3010
-4.7624 ODVOJENIM -0.3010
-4.7624 OESESA -0.2957
-4.7624 OGLASILA -0.3010
-4.7624 OGLASILE -0.2994
-4.7624 OGLEDNI -0.3010
-4.7624 OGRADE -0.2967
-4.7624 OJA~AO -0.3010
-4.7624 OKI^EN -0.2938
-4.7624 OKLEVETAO -0.3010
-3.3152 OKO -0.2943
-4.7624 OKOLICA -0.3010
-4.7624 OKOLI{ -0.3009
-4.4613 OKOLI{A -0.3010
-4.7624 OKOLNOSTI -0.3010
-4.4613 OKRENUT -0.2997
-4.1603 OKRENUTI -0.2967
-4.7624 OKRETATI -0.2967
-4.7624 OKRUGU -0.2832
-4.7624 OKUPILI -0.2994
-4.4613 OKUPILO -0.2985
-4.7624 OKUPIRANA -0.2947
-4.7624 OKUPLJENI -0.2967
-4.7624 OKUPLJENO -0.2987
-4.7624 OKVIR -0.3010
-4.7624 OLAK{ALO -0.3010
-4.7624 OLAK{ATI -0.3010
-4.7624 OLAK{ICE -0.2947
-4.7624 OLIMPIJADA -0.3010
-4.7624 OLIMPIJADI -0.2957
-4.7624 OLUJA -0.2947
-4.4613 OLUJNA -0.3007
-4.7624 OLUJNIM -0.3010
-4.7624 OLUJNO -0.3008
-4.7624 OLUJNOM -0.3010
-4.7624 OLUJNU -0.3010
-4.7624 OLUJU -0.2986
-4.7624 OMERBA{I^U -0.2832
-4.7624 OMETAJU -0.3010
-4.4613 OMOGU^ILA -0.3010
-4.7624 OMOGU^UJE -0.3000
-4.7624 OMOTANA -0.3010
-3.5863 ON -0.2911
-4.1603 ONA -0.2946
-4.2852 ONE -0.3001
-4.7624 ONE~ISTILA -0.3010
-4.4613 ONE~I{^ENJA -0.2831
-4.0634 ONI -0.2971
-4.7624 ONIMA -0.3004
-4.1603 ONO -0.3003
-4.4613 ONOGA -0.3007
-4.7624 OPALI^ -0.2947
-4.2852 OPASAN -0.2938
-4.7624 OPASNO -0.3010
-4.7624 OPASNOST -0.2938
-4.7624 OPASNOSTI -0.2832
-4.7624 OPERACIJI -0.2938
-4.7624 OPERACIJU -0.2957
-4.7624 OPERIRAN -0.2967
-4.7624 OPISUJE -0.3010
-4.7624 OPOJNIH -0.3010
-4.7624 OPOMENU -0.2986
-4.7624 OPORAVLJA -0.2957
-4.7624 OPORBA -0.2957
-4.7624 OPORBENI -0.3010
-4.7624 OPORBENIM -0.3010
-4.7624 OPORBENOGA -0.3010
-4.4613 OPOVRGAVA -0.3009
-4.7624 OPRAVDAN -0.2832
-4.7624 OPRAVDANJE -0.2985
-4.7624 OPRAVDANJEM -0.2985
-4.7624 OPRAVDANOST -0.3010
-4.7624 OPREMU -0.2832
-4.7624 OPREZA -0.3010
-4.4613 OPROSTITE -0.3007
-4.7624 OPSKRBNI -0.3009
-4.7624 OPTIMIST -0.2947
-4.4613 OPTU`BAMA -0.2994
-4.7624 OPTU`EN -0.2947
-4.7624 OPTU`ENI -0.3010
-4.7624 OPTU`ENICIMA -0.2994
-4.7624 OPTU`ENIH -0.2985
-4.7624 OPTU`ENIK -0.3010
-4.7624 OPTU`ENOGA -0.3010
-4.7624 OPTU`ILI -0.3010
-4.7624 OPTU`NICU -0.3009
-4.7624 OPTU`UJE -0.2994
-4.7624 OPTU`UJU -0.2987
-4.7624 OP^E -0.3010
-4.2852 OP^IH -0.3009
-4.7624 OP^INE -0.3010
-4.7624 OP^INI -0.3010
-4.7624 OP^INSKIM -0.2947
-4.7624 OP^INSKO -0.3010
-4.7624 OP^INSKOGA -0.3010
-4.7624 OP^INSKOM -0.3010
-4.7624 ORAHOVICE -0.2832
-4.7624 ORALNO -0.3010
-4.7624 ORANJSKI -0.3010
-4.4613 ORANJSKOGA -0.3010
-4.7624 OREBI^A -0.3006
-4.4613 ORGANIZACIJA -0.2985
-4.0634 ORGANIZACIJE -0.2709
-4.7624 ORGANIZACIJOM -0.3009
-4.7624 ORGANIZACIJU -0.3004
-4.7624 ORGANIZATOR -0.3010
-4.2852 ORGANIZATORI -0.3004
-4.7624 ORGANIZIRA -0.2947
-4.4613 ORGANIZIRALI -0.3009
-4.7624 ORGANIZIRAN -0.2957
-4.7624 ORGANIZIRANIH -0.3010
-4.7624 ORGANIZIRANIMA -0.3010
-4.7624 ORGANIZIRAO -0.3010
-4.7624 ORGANIZIRAT -0.2997
-4.4613 ORU`ANE -0.3010
-4.4613 ORU`ANIH -0.3010
-4.4613 ORU`JA -0.2806
-4.7624 ORU`JE -0.3007
-4.4613 ORU`JEM -0.2832
-4.7624 ORU`JU -0.2985
-2.8279 OSAM -0.2487
-4.7624 OSAMA -0.3010
-3.2852 OSAMDESET -0.2623
-4.7624 OSAMDESETAK -0.3009
-3.8593 OSAMNAEST -0.2822
-3.9842 OSAMSTO -0.3000
-4.7624 OSIGURANA -0.3010
-4.7624 OSIGURANI -0.3010
-4.4613 OSIGURANJA -0.2832
-4.7624 OSIGURANJE -0.2832
-4.7624 OSIGURANJU -0.2938
-4.7624 OSIGURANU -0.3010
-4.7624 OSIGURATI -0.3010
-4.7624 OSIGURAVATI -0.3008
-3.8081 OSIJEK -0.2965
-4.2852 OSIJEKU -0.2821
-3.8593 OSIM -0.2962
-4.7624 OSJETIO -0.3009
-4.4613 OSJETLJIVE -0.2967
-4.4613 OSJETLJIVI -0.3007
-4.2852 OSJETNO -0.2962
-4.7624 OSJE^A -0.2993
-3.6832 OSJE^ATI -0.3007
-4.7624 OSJE~KO -0.3010
-4.1603 OSLABJET -0.2997
-4.7624 OSLABJETI -0.2832
-4.7624 OSLABLJENA -0.3010
-4.7624 OSLABLJENI -0.3010
-4.7624 OSLOBODITELJSKE -0.3010
-4.7624 OSLOBO}ENJE -0.3010
-4.7624 OSMAN -0.3010
-4.7624 OSME -0.2832
-4.7624 OSMERO -0.2963
-4.7624 OSNA`ILO -0.3010
-4.7624 OSNIVA~KOJ -0.3010
-4.7624 OSNOVALE -0.2994
-4.7624 OSNOVAN -0.3000
-4.7624 OSNOVANA -0.3010
-4.7624 OSNOVAT -0.2997
-4.7624 OSNOVE -0.3010
-4.7624 OSNUJU -0.3010
-4.4613 OSNUTKU -0.2831
-3.8593 OSOBA -0.2747
-3.9173 OSOBE -0.2814
-3.9173 OSOBITO -0.2954
-4.7624 OSOBLJA -0.3009
-4.7624 OSOBNA -0.3010
-4.7624 OSOBNI -0.3010
-4.7624 OSOBNIM -0.3010
-4.4613 OSOBNO -0.3008
-4.7624 OSOBU -0.3010
-4.4613 OSPORAVA -0.3010
-4.4613 OSTACI -0.3008
-4.7624 OSTACIMA -0.2938
-4.4613 OSTAJE -0.2947
-4.7624 OSTALE -0.3010
-4.7624 OSTALIH -0.3010
-4.1603 OSTALIM -0.2987
-4.2852 OSTALOG -0.2947
-4.7624 OSTALOGA -0.2832
-4.7624 OSTANU -0.3009
-4.4613 OSTAO -0.2909
-4.7624 OSTATAKA -0.3010
-4.1603 OSTATI -0.2915
-4.7624 OSTAVCI -0.3010
-4.7624 OSTAVKOM -0.3000
-4.4613 OSTAVKU -0.2787
-4.4613 OSTOJI^ -0.2830
-4.7624 OSTVARENJE -0.3010
-4.7624 OSTVARITI -0.3009
-4.7624 OSTVARUJE -0.3009
-4.7624 OSUDILA -0.2963
-4.2852 OSUDIO -0.2963
-4.7624 OSUMNJI~EN -0.2985
-4.1603 OSUMNJI~ENIKA -0.2806
-4.7624 OSU}EN -0.2985
-4.7624 OSU}ENO -0.3010
-4.4613 OSVOJILA -0.2963
-4.4613 OSVOJILI -0.2994
-4.7624 OSVOJIO -0.2963
-4.4613 OSVRNUO -0.2987
-4.7624 OSVR^E -0.2967
-4.7624 OTETU -0.2947
-4.7624 OTKADA -0.3010
-4.7624 OTKAZA -0.2832
-4.7624 OTKAZALA -0.3010
-4.7624 OTKAZANE -0.2994
-4.2852 OTKAZAO -0.3010
-4.7624 OTKAZIMA -0.2986
-4.7624 OTKA`E -0.2832
-4.7624 OTKRIO -0.3010
-4.7624 OTKUCAO -0.3010
-4.7624 OTKUCAVAO -0.3010
-4.4613 OTOCI -0.3009
-4.7624 OTOCIMA -0.3008
-4.2852 OTOK -0.3003
-4.1603 OTOKA -0.2956
-4.7624 OTOKE -0.2832
-4.1603 OTOKU -0.2957
-4.7624 OTO~AC -0.2947
-4.4613 OTO~JE -0.2963
-4.7624 OTO~NE -0.3010
-4.2852 OTPAD -0.2757
-4.7624 OTPADA -0.3010
-4.7624 OTPISU -0.3010
-4.4613 OTPREMNINE -0.2782
-4.7624 OTPUSTITI -0.3002
-4.7624 OTPUTOVALA -0.2963
-4.7624 OTPUTOVAO -0.2957
-4.7624 OTRANTSKIM -0.3010
-4.7624 OTROVAN -0.3010
-4.7624 OTVARA -0.3010
-4.4613 OTVORENA -0.2994
-4.7624 OTVORENO -0.3010
-3.3000 OTVORENOM -0.2953
-3.4401 OTVORENOME -0.2924
-4.7624 OTVORENOMU -0.3001
-4.4613 OTVORITI -0.2807
-4.7624 OVA -0.3009
-4.2852 OVAJ -0.3010
-4.1603 OVE -0.2959
-4.7624 OVIH -0.3007
-4.4613 OVLASTI -0.2757
-4.2852 OVO -0.3010
-4.0634 OVOG -0.3009
-4.4613 OVOGA -0.3009
-4.7624 OVOGODI{NJI -0.3010
-4.7624 OVOGODI{NJOJ -0.3010
-4.2852 OVOJ -0.2831
-3.9842 OVU -0.3009
-4.7624 OZBILJNO -0.3010
-4.7624 OZBILJNU -0.3010
-4.7624 OZLIJE}EN -0.2963
-3.8081 OZLIJE}ENO -0.2722
-4.7624 OZLJEDA -0.2967
-4.7624 OZNAKA -0.3010
-4.4613 OZNA~ITI -0.2947
-4.7624 OZRA~JA -0.2938
-4.7624 O`IVLJAVANJE -0.3010
-4.7624 O`UJAK -0.2832
-4.4613 O`UJKU -0.3008
-4.7624 O{TE^ENI -0.2832
-4.7624 O{TRIM -0.3010
-4.7624 O{TRO -0.3010
-4.7624 O{TROVICA -0.2967
-4.7624 O{TROVICE -0.2832
-4.4613 O~AJNE -0.3010
-4.7624 O~EKIVANO -0.3010
-3.9842 O~EKUJE -0.2904
-4.0634 O~EKUJU -0.2713
-4.4613 O~EVID -0.2963
-4.7624 O~EVIDACA -0.2938
-4.7624 O~IJU -0.2947
-4.7624 O~ISTITI -0.3010
-4.7624 O~UVATI -0.3010
-3.5319 PA -0.2893
-4.4613 PACIJENT -0.2983
-4.7624 PACIJENTA -0.2832
-4.7624 PACIJENTIMA -0.2832
-4.2852 PADA -0.2966
-4.4613 PADOVI -0.2947
-4.7624 PADU -0.3010
-4.7624 PAG -0.2938
-4.7624 PAGA -0.2832
-4.0634 PAK -0.2737
-4.7624 PAKAO -0.3010
-4.7624 PAKETI^ -0.3001
-4.7624 PALADINA -0.3001
-4.4613 PALA~I -0.3010
-4.7624 PALA~U -0.3010
-4.1603 PALESTINACA -0.2830
-4.7624 PALESTINCA -0.2832
-4.7624 PALESTINCI -0.2997
-4.7624 PALESTINE -0.2832
-4.7624 PALESTINSKA -0.3010
-4.0634 PALESTINSKE -0.3010
-3.9842 PALESTINSKI -0.3006
-4.4613 PALESTINSKIH -0.3010
-4.7624 PALESTINSKIM -0.3010
-4.0634 PALESTINSKOG -0.3008
-4.4613 PALESTINSKOGA -0.3009
-4.7624 PALESTINSKOJ -0.3010
-4.7624 PAMET -0.2832
-4.7624 PAMTE -0.3010
-4.7624 PAMTIMO -0.3010
-4.7624 PAMTITI -0.3008
-4.7624 PAO -0.2963
-3.8593 PAPA -0.2757
-4.4613 PAR -0.3008
-4.7624 PARA -0.3010
-4.2852 PARIZU -0.2963
-4.7624 PARI{KIM -0.3010
-4.7624 PARI{KOG -0.3010
-4.1603 PARLAMENT -0.2757
-3.9842 PARLAMENTA -0.2832
-4.7624 PARLAMENTARNI -0.3010
-4.7624 PARLAMENTARNIH -0.3009
-4.1603 PARLAMENTU -0.3004
-4.7624 PARTNERIMA -0.3005
-4.2852 PARTNERSTVO -0.2803
-4.7624 PASKO -0.3010
-4.1603 PASTI -0.2941
-4.7624 PATITI -0.2998
-4.7624 PATNJE -0.3010
-4.7624 PAUELA -0.3010
-4.0634 PAVAO -0.3010
-4.7624 PEDAGOGA -0.3010
-3.3000 PEDESET -0.2634
-4.4613 PEPEO -0.2967
-4.7624 PERADI -0.3010
-4.7624 PERONJA -0.2832
-2.7846 PET -0.2552
-4.7624 PETAK -0.3009
-4.1603 PETE -0.2826
-4.2852 PETERO -0.2963
-4.7624 PETI -0.3010
-4.7624 PETICIJU -0.2832
-3.4006 PETNAEST -0.2671
-4.4613 PETNAESTE -0.3010
-4.7624 PETODNEVNE -0.3010
-4.2852 PETOGA -0.2988
-4.4613 PETORICA -0.3010
-4.4613 PETRA -0.2832
-4.7624 PETRINOVI^A -0.2832
-3.9842 PETSTO -0.3000
-4.4613 PETU -0.2831
-4.4613 PE{ON -0.2787
-4.7624 PILANA -0.3010
-4.7624 PILANE -0.2957
-4.7624 PILOTE -0.3009
-4.7624 PINO~ETA -0.2832
-4.7624 PIROTEHNIKE -0.2957
-4.4613 PIROTEHNI~AR -0.2830
-4.4613 PISANJE -0.3010
-4.7624 PISANJU -0.3010
-4.7624 PISMIMA -0.2938
-4.2852 PITANJA -0.2949
-3.9842 PITANJE -0.2813
-4.7624 PITANJIMA -0.3008
-4.4613 PITAO -0.2987
-4.7624 PITKE -0.3010
-3.9842 PI{E -0.2807
-4.7624 PI{TOLJEM -0.3010
-4.4613 PJESME -0.2947
-4.7624 PJESNI{TVA -0.2832
-4.4613 PLAN -0.2985
-4.2852 PLANA -0.2832
-4.4613 PLANINE -0.2938
-4.4613 PLANIRA -0.3010
-4.4613 PLANIRALA -0.2832
-4.7624 PLANIRANJA -0.3010
-4.7624 PLANIRANOG -0.2985
-4.7624 PLANIRAO -0.2985
-4.7624 PLANOM -0.3010
-4.7624 PLANOVIMA -0.3010
-4.4613 PLATIO -0.2960
-4.4613 PLATITI -0.3010
-4.7624 PLA^A -0.3010
-4.4613 PLA^AJU -0.2985
-4.7624 PLA^ANJA -0.2832
-4.7624 PLA^ANJE -0.3010
-4.7624 PLA^ANJU -0.2985
-4.7624 PLA^ATI -0.3009
-4.7624 PLA^E -0.2832
-4.7624 PLEBISCITARNO -0.2963
-4.7624 PLEJBOKS -0.2832
-4.4613 PLESOVI -0.3009
-4.7624 PLIMNI -0.3010
-4.7624 PLIMNIM -0.3010
-4.7624 PLIMNOGA -0.3010
-4.7624 PLIN -0.2832
-4.7624 PLINA -0.2832
-4.2852 PLITKA -0.3008
-4.7624 PLITKO -0.3010
-4.7624 PLITVICE -0.3010
-3.9842 PLJUSAK -0.2690
-4.7624 PLJUSKA -0.3007
-4.4613 PLJUSKOVA -0.2766
-3.7210 PLJUSKOVI -0.2677
-3.8593 PLJUSKOVIMA -0.2752
-4.7624 PLOVE -0.3000
-4.2852 PLOVI -0.2993
-4.7624 PLOVIDBOM -0.2938
-4.7624 PLOVILI -0.3001
-4.7624 PLOVIO -0.3010
-4.7624 PLO~I -0.3010
-3.6162 PLUS -0.2975
-4.4613 PLU^NIH -0.3010
-3.6484 PO -0.2997
-4.7624 POBILE -0.2957
-4.1603 POBJEDA -0.2947
-4.4613 POBJEGLI -0.3010
-4.7624 POBJE}UJE -0.2967
-4.2852 POBOLJ{ATI -0.2831
-4.7624 POBRATIMSTVA -0.3010
-4.7624 POBUNA -0.2832
-4.4613 POBUNE -0.2827
-4.2852 POBUNJENICI -0.2831
-4.7624 POBUNJENIK -0.2832
-4.4613 POBUNJENIKA -0.2776
-4.7624 POC -0.2947
-4.0634 POD -0.3010
-4.4613 PODACI -0.2824
-3.9173 PODACIMA -0.2777
-4.7624 PODATAKA -0.3003
-4.1603 PODATKE -0.2947
-4.7624 PODBEV{E -0.2938
-4.7624 PODBEV{EKA -0.2938
-4.7624 PODGORANA -0.3005
-4.7624 PODGORE -0.2957
-4.4613 PODIGNULI -0.3010
-4.7624 PODIGNUTA -0.3010
-4.7624 PODMETNUTA -0.2957
-4.0634 PODNE -0.2951
-4.7624 PODNESENA -0.3010
-4.7624 PODNIJELO -0.3010
-4.7624 PODRAVKE -0.2832
-4.7624 PODRAVSKA -0.2938
-4.4613 PODRAVSKE -0.3010
-4.7624 PODRHTAVALO -0.3010
-4.7624 PODRIJETLOM -0.3005
-4.7624 PODRUMU -0.3010
-4.0634 PODRU~JA -0.2775
-4.1603 PODRU~JE -0.2831
-4.7624 PODRU~JIMA -0.2938
-3.4836 PODRU~JU -0.2599
-4.7624 PODR`AO -0.2963
-4.7624 PODSJETILI -0.2967
-4.2852 PODSJETIO -0.2737
-4.7624 PODSJE^A -0.2994
-4.7624 PODSJE^AMO -0.3010
-4.7624 PODTAJNIKA -0.2957
-4.7624 PODUPIRATI -0.3009
-4.2852 PODUPIRE -0.3010
-4.7624 PODUPRLE -0.3010
-4.2852 PODUPRO -0.3010
-4.7624 PODUZETNI{TVA -0.2832
-4.4613 PODUZE^A -0.2947
-4.7624 PODUZE^E -0.3010
-4.4613 PODUZE^U -0.2963
-4.7624 PODVO`NJAKA -0.2832
-4.7624 PODZEMNA -0.2947
-4.4613 PODZEMNE -0.3010
-4.4613 PODZEMNOJ -0.3010
-4.4613 POE -0.3010
-3.9842 POGINULA -0.2977
-4.2852 POGINULE -0.2994
-4.7624 POGINULIMA -0.2947
-3.4613 POGINULO -0.2737
-4.7624 POGINUO -0.3010
-4.7624 POGLAVLJE -0.2957
-4.7624 POGLEDOM -0.3010
-4.7624 POGODILA -0.3010
-4.4613 POGODILI -0.3003
-4.7624 POGODILO -0.3009
-4.7624 POGODIO -0.2963
-4.7624 POGODITI -0.3010
-4.7624 POGON -0.3010
-4.7624 POGO}ENIM -0.3010
-4.4613 POGRE{KAMA -0.3010
-4.7624 POGRE{KE -0.2957
-4.7624 POGRIJE{ILA -0.3010
-4.7624 POINT -0.2832
-4.4613 POJAS -0.3010
-4.4613 POJASA -0.3010
-4.4613 POJASNIO -0.2946
-4.7624 POJASNOG -0.3010
-4.2852 POJASU -0.3010
-4.7624 POJAVI -0.2987
-4.7624 POJAVIO -0.2987
-4.7624 POJA~ALI -0.2994
-4.7624 POJA~ALO -0.2987
-3.9173 POJA~AN -0.2643
-4.4613 POJA~ANA -0.3007
-4.7624 POJA~ANU -0.3010
-4.4613 POJA~AT -0.2997
-4.7624 POJEDINIH -0.3010
-4.7624 POJEDINIM -0.3000
-4.4613 POJEDINOSTI -0.3002
-4.7624 POKAJANJEM -0.3009
-4.7624 POKAZALE -0.3006
-4.2852 POKAZALI -0.2947
-4.7624 POKAZALO -0.2963
-4.7624 POKAZUJU -0.3009
-4.7624 POKA`U -0.2832
-4.7624 POKOJNOGA -0.3008
-4.7624 POKOLJA -0.3004
-4.7624 POKOPANI -0.2938
-4.7624 POKRAJ -0.3010
-4.4613 POKRAJINAMA -0.2832
-4.2852 POKRAJINI -0.2757
-4.4613 POKRAJINSKE -0.3009
-4.4613 POKRENE -0.3010
-4.4613 POKRENULI -0.2994
-4.7624 POKRET -0.3010
-4.7624 POKRIVA~ -0.3010
-4.7624 POKRI^E -0.2963
-4.7624 POKROVITELJ -0.3010
-4.2852 POKU{AVAJU -0.3010
-3.8593 POL -0.2822
-4.0634 POLA -0.3008
-4.0634 POLAKO -0.2987
-4.7624 POLAZI -0.2998
-4.2852 POLICAJACA -0.2815
-4.7624 POLICAJCA -0.3010
-3.5582 POLICIJA -0.2638
-4.0634 POLICIJE -0.2941
-4.2852 POLICIJI -0.2776
-4.4613 POLICIJSKA -0.3010
-4.7624 POLICIJSKE -0.3010
-4.7624 POLICIJU -0.2994
-4.7624 POLITIKE -0.2832
-4.7624 POLITIKU -0.2947
-4.7624 POLITI~AREM -0.3010
-4.7624 POLITI~ARI -0.2938
-4.7624 POLITI~AROM -0.2832
-4.7624 POLITI~KA -0.3010
-4.4613 POLITI~KE -0.2938
-4.7624 POLITI~KI -0.3010
-4.7624 POLITI~KIM -0.3010
-4.7624 POLJANE -0.2986
-3.4613 POLJE -0.2741
-4.4613 POLOVICE -0.3009
-4.7624 POLOVICI -0.3010
-4.7624 POLO`AJ -0.3010
-4.7624 POLO`AJA -0.2947
-4.7624 POLUAUTOCESTI -0.3010
-4.7624 POMAGATI -0.2832
-4.7624 POMAK -0.3010
-4.7624 POMIRBI -0.3010
-4.7624 POMI~E -0.3006
-4.4613 POMOGLI -0.2957
-4.7624 POMOGNE -0.3009
-3.6832 POMORSKOG -0.3009
-3.6162 POMORSKOGA -0.3008
-3.6832 POMO^ -0.2748
-3.6162 POMO^I -0.2585
-4.7624 POMO^NI -0.3010
-4.1603 PONAJPRIJE -0.2956
-4.7624 PONAVLJAM -0.3010
-4.7624 PONA{ANJE -0.2832
-4.1603 PONEDJELJAK -0.2946
-2.9173 PONEGDJE -0.2783
-4.7624 PONOVILO -0.3010
-4.7624 PONOVITI -0.2967
-4.7624 PONOVLJENI -0.3010
-4.7624 PONOVLJENIH -0.3010
-4.7624 PONOVLJENIM -0.2947
-4.7624 PONOVLJENOM -0.3010
-4.2852 PONOVNI -0.3010
-4.2852 PONOVNO -0.2963
-4.4613 PONOVNOM -0.2962
-4.2852 PONO^ -0.2831
-4.2852 PONO^I -0.2821
-4.7624 PONO^NOJ -0.2997
-4.7624 PONTE -0.2993
-4.4613 PONUDA -0.2957
-4.7624 PONUDILE -0.3010
-4.7624 PONUDIO -0.3008
-4.7624 PONU}EN -0.2967
-4.2852 POPISU -0.2963
-4.7624 POPLAVLJENA -0.3010
-4.7624 POPULARNOST -0.3008
-4.1603 POPUNJAVA -0.2739
-4.1603 POPUST -0.2938
-4.7624 POPUT -0.3010
-4.7624 PORAST -0.3010
-4.7624 PORASTA -0.3010
-4.7624 PORAZIO -0.3010
-4.4613 POREME^AJ -0.3009
-4.7624 POREME^AJEM -0.2832
-4.7624 POREZNE -0.3010
-4.7624 PORUKE -0.2967
-4.4613 PORUKOM -0.2994
-4.7624 PORUKU -0.2938
-4.4613 PORU~ENO -0.2963
-4.7624 PORU~ILA -0.2963
-4.7624 PORU~IO -0.3005
-4.7624 POSADA -0.2967
-4.4613 POSADE -0.2832
-4.7624 POSADU -0.2994
-4.4613 POSEBAN -0.3010
-4.1603 POSEBICE -0.2967
-4.4613 POSEBNA -0.3010
-4.4613 POSEBNO -0.3010
-4.7624 POSEBNOST -0.3010
-4.4613 POSJET -0.3009
-4.1603 POSJETA -0.3009
-4.2852 POSJETITELJA -0.2807
-4.4613 POSJETITELJE -0.2998
-4.7624 POSJETITI -0.3006
-4.7624 POSJETU -0.3010
-4.7624 POSKUPE -0.3010
-4.7624 POSKUPILE -0.2994
-4.7624 POSKUPLJENJA -0.3010
-4.7624 POSKUPLJENJIMA -0.2947
-4.4613 POSLA -0.2997
-4.2852 POSLALA -0.2960
-4.4613 POSLAO -0.2963
-4.4613 POSLAT -0.2997
-4.7624 POSLATI -0.3009
-3.9173 POSLIJE -0.2986
-4.7624 POSLIJEOPERATIVNA -0.3010
-3.2061 POSLIJEPODNE -0.2512
-4.7624 POSLIJEPODNEVA -0.3010
-4.4613 POSLIJERATNE -0.3010
-4.7624 POSLJEDICE -0.3010
-4.7624 POSLJEDNJE -0.3008
-4.7624 POSLJEDNJEGA -0.3007
-4.4613 POSLJEDNJIH -0.3008
-4.0634 POSLJEDNJIM -0.3010
-4.7624 POSLODAVCEM -0.3008
-3.6484 POSLOVA -0.2708
-4.7624 POSLOVNA -0.3010
-4.7624 POSLOVNE -0.3010
-4.7624 POSLOVNI -0.3010
-4.7624 POSLOVODSTVA -0.3010
-4.7624 POSMRTNI -0.3010
-4.7624 POSMRTNIH -0.3010
-4.7624 POSMRTNIM -0.3010
-4.7624 POSREDNIKOM -0.2832
-4.7624 POSREDOVANJA -0.3010
-4.7624 POSTAJA -0.2957
-4.4613 POSTAJE -0.3010
-4.1603 POSTAJI -0.2763
-4.7624 POSTAJOM -0.2832
-4.7624 POSTAO -0.3010
-4.7624 POSTAT -0.2997
-4.2852 POSTAVI -0.2967
-4.4613 POSTAVILI -0.3010
-4.7624 POSTAVLJANJE -0.3009
-4.7624 POSTAVLJENO -0.2963
-4.7624 POSTIGLA -0.3010
-4.4613 POSTIGLE -0.3010
-4.7624 POSTIGLI -0.2994
-4.7624 POSTIGNU -0.3010
-4.7624 POSTIGNUT -0.3010
-4.7624 POSTIGNUTOM -0.2957
-4.4613 POSTI^I -0.2832
-4.7624 POSTI`E -0.2967
-3.5319 POSTO -0.2699
-4.7624 POSTOJALE -0.2832
-4.7624 POSTOJANJU -0.3010
-4.7624 POSTOJATI -0.2832
-4.4613 POSTOJE -0.3010
-3.9173 POSTOJI -0.2921
-4.7624 POSTOTAK -0.3010
-4.7624 POSTROJBA -0.2832
-4.1603 POSTUPAK -0.2830
-4.7624 POSTUPAN -0.3010
-4.7624 POSTUPKE -0.3009
-4.0634 POSTUPNO -0.3009
-4.1603 POSTUPNOM -0.3010
-4.7624 POSVE^ENE -0.2832
-4.4613 POSVUDA -0.3008
-4.4613 POTE{KO^A -0.2957
-3.9173 POTE{KO^E -0.3002
-4.4613 POTICAJ -0.2947
-4.1603 POTICAJNO -0.3010
-4.7624 POTI~E -0.3010
-4.7624 POTJE~E -0.3005
-4.1603 POTKRAJ -0.3006
-4.7624 POTPIS -0.2947
-4.7624 POTPISALE -0.3010
-4.1603 POTPISALI -0.2994
-4.7624 POTPISAN -0.3009
-4.7624 POTPISAT -0.2997
-4.7624 POTPISIVANJEM -0.3010
-4.7624 POTPISNICIMA -0.3010
-4.4613 POTPORU -0.3010
-4.4613 POTPREDSJEDNICA -0.3009
-4.4613 POTPREDSJEDNIK -0.3009
-4.2852 POTPUNA -0.3010
-4.2852 POTPUNO -0.3010
-4.7624 POTREBA -0.2985
-4.7624 POTREP{TINA -0.2985
-3.9173 POTRES -0.2987
-3.7624 POTRESA -0.2631
-4.7624 POTRESIMA -0.2957
-4.4613 POTRESU -0.2947
-4.7624 POTRO{A~ -0.2832
-4.7624 POTRO{A~KE -0.3010
-4.7624 POTRO{ILA -0.3008
-4.7624 POTRO{ITI -0.3006
-4.7624 POTVRDI -0.2994
-4.7624 POTVRDILA -0.2963
-4.7624 POTVRDILI -0.2832
-4.7624 POTVRDILO -0.3010
-4.7624 POTVRDIO -0.2963
-4.7624 POTVR}ENO -0.3010
-4.4613 POTVR}UJU -0.3010
-4.7624 POUZDANJE -0.2832
-4.7624 POVEZOM -0.3010
-4.7624 POVEZUJE -0.3010
-4.7624 POVE^A -0.2832
-4.7624 POVE^ANJA -0.3010
-4.4613 POVE^ANJE -0.3010
-4.7624 POVE^ANO -0.2947
-4.7624 POVE^AVA -0.2985
-4.7624 POVIJESNIM -0.3010
-4.7624 POVIJESTI -0.2967
-3.9842 POVI{ENOG -0.3010
-4.4613 POVJERENIK -0.2983
-4.4613 POVJERENIKA -0.2806
-3.9842 POVJERENSTVA -0.2805
-4.0634 POVJERENSTVO -0.3006
-4.7624 POVJESNI~AR -0.2947
-4.4613 POVLASTICU -0.3010
-4.4613 POVLA~ENJU -0.2826
-4.7624 POVLA~I -0.2957
-4.7624 POVODOM -0.3010
-4.2852 POVODU -0.3009
-4.4613 POVOLJAN -0.2828
-4.2852 POVOLJNE -0.2757
-3.9842 POVOLJNI -0.2730
-4.7624 POVOLJNIJE -0.3010
-4.7624 POVOLJNO -0.3010
-4.7624 POVRATAK -0.3010
-4.7624 POVRATKA -0.3005
-4.4613 POVRATNU -0.3010
-4.7624 POVREDOM -0.3010
-3.6484 POVREMENO -0.2998
-4.4613 POVR{INA -0.2936
-4.7624 POZADINI -0.3010
-4.7624 POZDRAVLJAJU^I -0.3010
-4.1603 POZIV -0.2787
-4.1603 POZIVA -0.2904
-4.7624 POZIVAJU -0.2967
-4.4613 POZIVAJU^I -0.2987
-4.7624 POZIVIMA -0.2985
-4.7624 POZNATA -0.3010
-4.2852 POZNATI -0.2999
-4.7624 POZNATO -0.3010
-4.4613 POZVALA -0.2994
-4.7624 POZVALE -0.3010
-4.4613 POZVALI -0.2994
-3.8081 POZVAO -0.2919
-4.4613 PO`AR -0.2987
-4.2852 PO`ARU -0.2963
-4.7624 PO{ALJU -0.3010
-4.7624 PO{TIVANJE -0.3010
-3.9173 PO{TOVANE -0.3010
-3.9173 PO{TOVANI -0.3010
-4.4613 PO{TOVANJA -0.2947
-4.7624 PO{TOVANJE -0.2832
-4.0634 PO~AST -0.3010
-4.7624 PO~ASTI -0.3010
-4.0634 PO~ELA -0.2962
-4.4613 PO~ELI -0.2993
-4.1603 PO~EO -0.2963
-3.9842 PO~ETAK -0.2961
-3.9842 PO~ETI -0.2955
-3.8593 PO~ETKA -0.2961
-3.9842 PO~ETKOM -0.3009
-3.3822 PO~ETKU -0.2875
-4.7624 PO~INIO -0.3010
-3.5319 PO~INJE -0.3001
-4.7624 PO~INJENOG -0.3010
-4.7624 PO~NU -0.3009
-4.7624 PRAGMATI~NO -0.3010
-4.4613 PRAKSI -0.2994
-4.7624 PRAKTI~KI -0.3006
-4.7624 PRATE -0.3010
-4.4613 PRATITI -0.2962
-3.7624 PRAVA -0.2747
-4.7624 PRAVDE -0.2957
-4.7624 PRAVEDNA -0.2947
-4.7624 PRAVEDNE -0.2947
-4.7624 PRAVEDNI -0.2947
-4.1603 PRAVILA -0.3009
-4.7624 PRAVNI -0.3010
-3.8593 PRAVO -0.2720
-4.7624 PRAVOG -0.3010
-4.7624 PRAVOSLAVNE -0.3010
-4.4613 PRAVOSU}A -0.2806
-4.4613 PRAZNI -0.3010
-4.7624 PRAZNIKA -0.2832
-4.7624 PRAZNIKE -0.2832
-4.7624 PREBRODILA -0.3010
-4.7624 PREBROJAVA -0.3010
-4.7624 PREBROJAVANJE -0.3010
-4.7624 PREBRZE -0.3010
-4.1603 PRED -0.3009
-4.7624 PREDALI -0.3010
-4.7624 PREDAO -0.2963
-4.7624 PREDATI -0.3010
-4.7624 PREDBACUJE -0.3010
-4.7624 PREDBLAGDANSKO -0.3008
-4.7624 PREDGRA}A -0.2938
-4.7624 PREDGRA}IMA -0.2832
-4.7624 PREDIZBORNI -0.3010
-4.7624 PREDIZBORNOJ -0.3010
-4.7624 PREDIZBORNU -0.3010
-4.7624 PREDJELE -0.3008
-4.0634 PREDJELIMA -0.2942
-4.7624 PREDLAGALI -0.2947
-4.4613 PREDLO`ILI -0.2994
-4.7624 PREDLO`IT -0.2997
-4.7624 PREDMETI -0.3004
-4.4613 PREDNOSTI -0.3007
-4.7624 PREDNOVOGODI{NJE -0.3010
-4.7624 PREDSJEDA -0.3010
-4.4613 PREDSJEDANJE -0.3010
-4.4613 PREDSJEDATELJ -0.2832
-4.7624 PREDSJEDNICE -0.3010
-3.1092 PREDSJEDNIK -0.2818
-3.3474 PREDSJEDNIKA -0.2764
-3.9842 PREDSJEDNIKOM -0.3009
-4.4613 PREDSJEDNIKOV -0.2832
-4.4613 PREDSJEDNIKOVU -0.3010
-4.1603 PREDSJEDNIKU -0.3010
-4.4613 PREDSJEDNI{TVA -0.3010
-4.7624 PREDSJEDNI~KE -0.3010
-4.1603 PREDSJEDNI~KIH -0.3009
-4.2852 PREDSJEDNI~KIM -0.3010
-4.4613 PREDSTAVILI -0.2994
-4.4613 PREDSTAVIO -0.3010
-4.7624 PREDSTAVITI -0.3010
-4.7624 PREDSTAVKU -0.3010
-4.4613 PREDSTAVLJA -0.3010
-4.7624 PREDSTAVLJALI -0.2938
-4.7624 PREDSTAVLJANJE -0.3010
-4.7624 PREDSTAVLJEN -0.2963
-4.1603 PREDSTAVNICI -0.3010
-4.7624 PREDSTAVNIK -0.3009
-4.4613 PREDSTAVNIKE -0.3010
-4.7624 PREDSTAVNIKOM -0.3009
-4.7624 PREDSTAVNI~KU -0.3010
-4.7624 PREDVI}AJU -0.3009
-4.7624 PREDVI}EN -0.2985
-4.2852 PREDVI}ENA -0.2962
-4.4613 PREDVI}ENE -0.3009
-4.7624 PREDVI}ENO -0.3010
-4.7624 PREDVODIO -0.2963
-4.7624 PREGLED -0.3006
-4.7624 PREGLEDOM -0.3010
-3.7210 PREGOVORA -0.2637
-4.0634 PREGOVORE -0.2928
-4.7624 PREGOVORI -0.3010
-4.7624 PREGOVORIMA -0.2832
-4.7624 PREHRANE -0.2938
-4.7624 PREIMENUJE -0.2957
-4.7624 PREISPITANE -0.2832
-4.7624 PREKID -0.3010
-4.7624 PREKINU -0.3010
-4.7624 PREKINULA -0.2963
-4.7624 PREKINULI -0.2994
-4.7624 PREKINUT -0.3008
-4.4613 PREKINUTIH -0.3009
-4.7624 PREKJU~ER -0.3010
-4.0634 PREKO -0.3010
-4.7624 PREKRIVENA -0.3010
-4.4613 PREKR{AJ -0.2757
-4.7624 PREKR{AJE -0.2832
-4.7624 PREKR{ITELJI -0.3009
-4.7624 PRELILA -0.3010
-3.0142 PREMA -0.2990
-4.7624 PREMDA -0.3005
-3.5582 PREMIJER -0.2755
-3.8081 PREMIJERA -0.2830
-3.8593 PREMIJEROM -0.2831
-4.4613 PREMIJERU -0.3006
-3.8593 PREMJE{TA -0.2979
-4.7624 PREMJE{TANJA -0.3010
-4.7624 PRENESEN -0.2957
-4.4613 PRENIJELI -0.2994
-4.4613 PRENOSE -0.2832
-4.4613 PRENOSI -0.3008
-4.7624 PREOPASNO -0.2832
-4.7624 PREOSTALOM -0.3007
-4.7624 PREPISANI -0.3005
-4.7624 PREPORU~UJE -0.3010
-4.7624 PREPOZNAJEMO -0.3010
-4.7624 PREPREKA -0.2957
-4.7624 PREPUNOM -0.3010
-4.7624 PREPUSTIO -0.3010
-4.7624 PRERASTAO -0.2963
-4.4613 PRESTAJU -0.3010
-4.7624 PRESTALE -0.3010
-4.7624 PRESTANAK -0.3009
-4.7624 PRESTAO -0.3001
-4.7624 PRESUDE -0.3009
-4.7624 PRESUDU -0.2832
-3.2852 PRETE`ITO -0.2982
-4.7624 PRETHODNIKA -0.3010
-4.2852 PRETPLATA -0.2963
-4.7624 PRETPLATE -0.3010
-4.7624 PRETPLATOM -0.2985
-4.7624 PRETPLATU -0.3008
-4.7624 PRETPOSTAVKOM -0.2994
-4.7624 PREUSMJERENA -0.2832
-4.7624 PREVELIK -0.3000
-4.7624 PREVENCIJI -0.3010
-4.7624 PREVEZEN -0.3010
-4.7624 PREVEZENI -0.2994
-4.7624 PREVI{E -0.3010
-4.7624 PREVLADAVAT -0.2997
-4.2852 PREVLADAVATI -0.2999
-4.4613 PREVOZILA -0.3008
-4.4613 PREVOZIO -0.2963
-4.4613 PREZIMI -0.3008
-4.7624 PRE`IVJELE -0.2832
-4.7624 PRE`IVJELI -0.3010
-4.7624 PRE{AO -0.2957
-3.7210 PRI -0.3009
-4.7624 PRIBLI`AVA -0.3010
-4.7624 PRIBLI`AVANJA -0.3010
-4.4613 PRIBLI`ILO -0.3010
-4.7624 PRIDRU`IO -0.3010
-4.7624 PRIDRU`IVANJU -0.3008
-4.7624 PRIGODNOJ -0.2963
-4.7624 PRIGODOM -0.3010
-4.7624 PRIGOVORA -0.2967
-4.7624 PRIHOD -0.2998
-4.7624 PRIHVATILA -0.3008
-4.7624 PRIHVATIO -0.3010
-4.7624 PRIHVATITI -0.3010
-4.7624 PRIHVATLJIVIJI -0.2957
-4.7624 PRIHVA^E -0.2963
-4.4613 PRIJATELJA -0.2766
-4.7624 PRIJATELJE -0.2947
-4.7624 PRIJATELJEVANJE -0.3001
-4.7624 PRIJATELJIMA -0.2947
-4.4613 PRIJAVA -0.2942
-4.7624 PRIJAVLJENE -0.2985
-4.7624 PRIJAVU -0.3009
-3.5582 PRIJE -0.2910
-4.2852 PRIJEDLOG -0.2831
-4.7624 PRIJEDLOGA -0.3010
-4.7624 PRIJEDLOGE -0.3010
-4.7624 PRIJELAZA -0.3009
-4.7624 PRIJELAZNE -0.3010
-4.7624 PRIJELAZNU -0.3010
-4.7624 PRIJELAZU -0.3009
-4.7624 PRIJELOMA -0.2832
-4.7624 PRIJEMNOJ -0.3010
-4.1603 PRIJEPODNE -0.2893
-4.7624 PRIJETE -0.3010
-4.7624 PRIJETNJE -0.3010
-4.7624 PRIJETNJU -0.3010
-4.7624 PRIJEVREMENOG -0.3010
-4.7624 PRIKAZALA -0.3010
-4.7624 PRIKAZATI -0.3010
-4.7624 PRIKLJU~ENJE -0.3010
-4.7624 PRIKLJU~ILA -0.2987
-4.7624 PRIKUPIO -0.3002
-4.7624 PRIKUPITI -0.3008
-4.7624 PRIKUPLJAO -0.3010
-4.4613 PRIKUPLJATI -0.2993
-4.7624 PRIKUPLJENO -0.3009
-4.7624 PRILAZE -0.3010
-4.7624 PRILIKA -0.3010
-4.0634 PRILIKE -0.2916
-4.7624 PRILJEV -0.3010
-4.7624 PRILOGA -0.2938
-4.7624 PRIMANJE -0.2957
-4.4613 PRIMANJU -0.3010
-4.7624 PRIMARNE -0.3010
-4.7624 PRIMILA -0.3010
-4.7624 PRIMIO -0.2963
-4.2852 PRIMITI -0.2967
-4.7624 PRIMI~E -0.3010
-4.7624 PRIMJENJIVAO -0.3010
-4.7624 PRIMJENJIVATI -0.2957
-4.7624 PRIMJENJUJE -0.2832
-4.4613 PRIMJERENU -0.3010
-4.2852 PRIMJERICE -0.2831
-4.7624 PRIMLJEN -0.2957
-4.7624 PRIMORJA -0.3010
-4.7624 PRIMORJU -0.3008
-4.7624 PRIMORSKOGORANSKE -0.3010
-4.7624 PRIOP^ENJE -0.3010
-4.2852 PRIOP^ENJU -0.2756
-4.4613 PRIOP^ENO -0.2946
-4.4613 PRIOP^ILA -0.2946
-4.4613 PRIOP^ILO -0.2890
-4.4613 PRIOP^IO -0.2782
-4.7624 PRIPADNI -0.3010
-4.7624 PRIPADNIK -0.3010
-4.2852 PRIPADNIKA -0.3010
-4.7624 PRIPADNIKE -0.3010
-4.7624 PRIPADNIKU -0.3010
-4.7624 PRIPADNOST -0.2832
-4.7624 PRIPAZITI -0.3007
-4.4613 PRIPO^ENJU -0.2831
-4.7624 PRIPREMA -0.2985
-4.2852 PRIPREMAMA -0.2985
-4.7624 PRIPREME -0.2947
-4.4613 PRIPREMU -0.2985
-4.7624 PRIREDBE -0.2832
-4.7624 PRIREDBI -0.3010
-4.7624 PRIRE}ENO -0.2963
-4.4613 PRIRODE -0.2947
-4.7624 PRIRODNE -0.3010
-4.7624 PRIRODNIH -0.3010
-4.4613 PRIRODNOM -0.3010
-4.7624 PRISILJEN -0.3007
-4.4613 PRISJETILI -0.3010
-4.7624 PRISJE^AJU^I -0.2987
-4.7624 PRISTALA -0.2967
-4.7624 PRISTALO -0.3008
-4.4613 PRISTAO -0.2967
-4.7624 PRISTATI -0.2967
-4.7624 PRISTRANOST -0.2947
-4.2852 PRISTUP -0.3008
-4.7624 PRISTUPA -0.3010
-4.4613 PRISTUPNE -0.3010
-4.7624 PRISTUPNIH -0.3009
-4.4613 PRITISAK -0.2787
-4.7624 PRITISKA -0.3010
-4.4613 PRITOM -0.2987
-4.7624 PRIVATNOJ -0.3010
-4.7624 PRIVEDEN -0.3010
-4.2852 PRIVELA -0.3008
-4.7624 PRIVESTI -0.3010
-4.4613 PRIVREMENO -0.3010
-4.7624 PRIZNA -0.2938
-4.4613 PRIZNAJU^I -0.2994
-4.4613 PRIZNALA -0.2993
-4.2852 PRIZNANJE -0.2986
-4.7624 PRIZNAO -0.2963
-4.7624 PRI~A -0.3010
-4.7624 PRI~AONICA -0.3004
-4.7624 PRI~UVNA -0.3010
-4.7624 PRKOMET -0.2832
-4.7624 PRO -0.2986
-4.7624 PROBIJEN -0.3010
-4.4613 PROBLEM -0.3010
-3.8593 PROBLEMA -0.2698
-4.4613 PROBLEMI -0.3008
-4.7624 PROBLEMU -0.2832
-4.1603 PROCES -0.3009
-4.7624 PROCESA -0.2832
-4.7624 PROCESIJA -0.2832
-4.7624 PROCESU -0.3010
-4.7624 PROCJENAMA -0.3010
-4.7624 PROCJENJUJU -0.2994
-4.7624 PRODAJOM -0.3010
-4.7624 PRODUBLJAVATI -0.2938
-4.7624 PRODULJENJU -0.3010
-4.7624 PROFESIONALNOG -0.3010
-4.7624 PROFESOR -0.3010
-4.7624 PROFESORA -0.2832
-4.4613 PROGLASILE -0.2832
-4.2852 PROGLASIO -0.2963
-4.4613 PROGLA{EN -0.3010
-4.7624 PROGLA{ENJA -0.3010
-2.7986 PROGNOZA -0.2985
-4.7624 PROGNOZE -0.3010
-4.0634 PROGRAM -0.2731
-4.1603 PROGRAMA -0.2730
-4.7624 PROGRAME -0.3004
-4.7624 PROGRAMSKI -0.3010
-4.7624 PROGRAMU -0.3010
-4.7624 PROGRES -0.3010
-4.7624 PROIZVODA -0.2947
-4.7624 PROIZVODIMA -0.2832
-4.7624 PROIZVODNJE -0.3010
-4.7624 PROIZVODNJOM -0.3010
-4.7624 PROIZVODNJU -0.2832
-4.7624 PROJEKATA -0.2986
-4.2852 PROJEKT -0.2985
-4.0634 PROJEKTA -0.2790
-4.4613 PROJEKTOM -0.3008
-4.2852 PROJEKTU -0.2993
-4.7624 PROKLETSTVO -0.2832
-4.7624 PROLASKA -0.3010
-4.7624 PROLAZ -0.2987
-4.7624 PROLAZAK -0.3010
-4.7624 PROMAR -0.2947
-4.7624 PROMATRA~A -0.2938
-4.7624 PROMATRA~I -0.3004
-3.7624 PROMET -0.2929
-4.7624 PROMETNA -0.3010
-4.1603 PROMETNE -0.3010
-4.7624 PROMETNICI -0.3009
-4.7624 PROMETNIM -0.3010
-4.7624 PROMETNOJ -0.3010
-4.2852 PROMETU -0.2832
-4.7624 PROMI#BU -0.3003
-4.7624 PROMICANJU -0.3010
-4.7624 PROMICATI -0.3010
-4.4613 PROMILA -0.2757
-3.7624 PROMJENE -0.2802
-4.7624 PROMJENJIVA -0.3010
-3.8593 PROMJENJIVO -0.2745
-4.7624 PROMJENJIVOM -0.3010
-4.2852 PROMJENJIVU -0.3010
-4.7624 PROMJENLJIVA -0.3010
-3.5582 PROMJENLJIVO -0.3002
-4.7624 PROMJENOM -0.3010
-4.4613 PRONA^I -0.3010
-4.7624 PRONA}EN -0.3010
-4.7624 PRONA}ENI -0.3010
-4.7624 PROPAGANDA -0.3010
-4.7624 PROPISA -0.2832
-4.4613 PROPISANE -0.3010
-4.7624 PROPUSTA -0.2947
-4.4613 PROPUSTE -0.2957
-4.7624 PROPU{TAJU -0.3010
-4.7624 PRORA~UN -0.2832
-4.4613 PRORA~UNA -0.2832
-4.7624 PRORA~UNSKOG -0.3010
-4.2852 PROSINCA -0.2895
-4.4613 PROSJE~NO -0.2962
-4.4613 PROSLAVA -0.2962
-4.7624 PROSLAVAMA -0.3010
-3.9842 PROSLAVE -0.2707
-4.7624 PROSLAVILE -0.2994
-4.7624 PROSLAVIO -0.3010
